5 64
0 -0.066564016 0.08311567 0.2816918 -0.1479934 -0.0125579 -0.25812024 0.15502898 -0.2612894 0.07254363 0.19008756 0.2273238 0.15135631 0.019472351 0.05662 -0.19985028 0.07861272 -0.056921624 0.08711451 -0.013784751 -0.19546448 0.11687437 -0.027795281 0.115596645 -0.097540356 0.14701092 0.09884235 -0.043257657 0.12250667 -0.07386344 0.09690053 -0.25111517 0.0030260815 -0.120353155 -0.08612637 -0.17045046 0.061370473 0.11306703 0.0074667274 0.1509342 0.05356406 0.0840179 0.07400115 0.0068328385 -0.095691256 -0.0008260263 0.06511441 -0.051099245 -0.03459142 0.0023363407 -0.014413996 0.057869907 -0.01788831 0.050334133 0.030773986 -0.000547676 0.013847043 0.097095534 -0.10942097 0.12071817 -0.15054971 0.18305159 0.013171929 -0.050067436 0.08482006
4 -0.021410298 0.08140448 0.22713399 -0.029547358 -0.038977873 -0.2514425 0.02448998 -0.086749874 0.02411251 0.2432484 0.022656308 0.03355217 -0.06856227 0.15379997 -0.14654316 0.18930094 -0.021681473 0.06991211 -0.1642067 -0.36897543 0.30978087 -0.14047806 0.1917288 -0.16083609 0.20905165 -0.03672961 0.012370293 0.32553393 0.052527938 0.38283855 -0.5001062 0.17561544 -0.41747648 -0.11308536 -0.3281579 0.062080555 0.009795797 0.07752461 0.093933955 0.046356145 0.1697262 0.07841254 0.039140105 -0.056061964 0.0627852 0.04872615 -0.035467178 -0.101043984 -0.047498144 -0.03671449 0.12136577 -0.08911755 0.116239175 0.0480036 -0.06761284 0.05277031 0.09777491 -0.100242175 0.1610231 -0.18863223 0.15314904 0.05730127 -0.037574492 0.121169314
1 -0.13666733 0.25450668 0.2821888 -0.30725914 0.00042982533 -0.26759574 0.41549376 -0.5489735 0.082953535 0.28764838 0.14287207 0.141138 -0.114257045 -0.15607366 -0.06539736 0.10194087 0.1724621 0.0034344879 0.13837458 0.07473283 -0.019704167 0.050116606 -0.1261435 0.04250029 -0.012036066 -0.24870045 0.028996097 0.18662742 0.1819673 0.14900579 -0.11098274 0.15888461 0.05438553 -0.09186826 -0.113956146 0.07744166 0.2303347 -0.0763385 0.20165808 0.052570317 0.041046068 0.08804918 -0.012920011 -0.14131552 -0.034565173 0.086603194 -0.067385025 -0.0006121356 0.029746018 -0.010127856 0.040020056 0.009660771 0.02197799 0.028578548 0.03648501 -0.0040846327 0.15112375 -0.17197548 0.15946293 -0.21454339 0.2930178 -0.004021937 -0.07367985 0.106773816
2 -0.03391225 0.11609822 0.1546066 0.03499214 -0.06968399 -0.15500727 0.076134324 0.073401555 0.048532143 0.06550275 0.165779 0.10041879 0.040456958 0.03606476 -0.15606721 0.034417324 -0.05108978 0.07452948 -0.03039715 -0.21731459 0.10186418 -0.07854353 0.14322959 -0.13428175 0.105500095 0.0949716 0.026672829 0.20102027 0.031241197 0.23227863 -0.23425543 0.13812692 -0.3770185 -0.07192537 -0.25489277 0.03164879 -0.031883504 0.09100628 0.056216333 0.036410812 0.14888604 0.056849074 0.039344795 -0.026362903 0.06397064 0.02996532 -0.020136476 -0.09163222 -0.043387424 -0.03231365 0.10423284 -0.079699434 0.09682332 0.037498184 -0.060796034 0.046185944 0.07021532 -0.06915188 0.12112708 -0.14115049 0.11103957 0.049517702 -0.023819478 0.09637313
3 -0.05906793 0.14310776 0.44620675 -0.23408075 -0.005470572 -0.3026895 0.06928348 -0.3039221 0.098944135 0.22117367 0.22574998 0.1575911 0.048383344 0.07278987 -0.25121856 0.090990104 -0.14692155 0.12096639 -0.020917503 -0.3528966 0.11720663 -0.09050998 0.16435502 -0.14830357 0.15276818 0.14966166 -0.0017271545 0.176988 -0.04764423 0.1844572 -0.27170646 0.06300632 0.3191867 -0.0056336476 0.089239195 0.022517445 0.13435225 -0.08358504 0.048488192 -0.010393352 -0.1600792 -0.027346712 -0.043371726 -0.0125416815 -0.059340846 -0.0026361675 0.010242241 0.1021159 0.038996104 0.01681704 -0.09700852 0.052168813 -0.12595542 -0.04794973 0.06033211 -0.05076136 -0.047567286 0.051166546 -0.09815156 0.09796075 -0.05553212 -0.02980245 0.027933544 -0.057367615
