5 64
0 0.036791142 -0.14536667 -0.09294368 0.037262276 0.081491396 -0.012885792 -0.13625342 0.024563594 0.0066355662 -0.016171249 -0.17947422 -0.10095854 -0.2237494 -0.12528674 0.1669873 0.22318406 -0.13965057 0.14001037 -0.15149318 -0.18415174 0.29857185 0.03516125 0.14014524 -0.11315149 0.13825518 0.16252007 -0.17757295 -0.14452498 -0.18022418 -0.08527484 -0.23690738 -0.23626618 0.046294805 -0.012833211 0.029114977 0.036078203 -0.021230713 -0.010060264 -0.0065437774 0.015839979 -0.00024036362 -0.01618158 0.002758957 0.021451248 0.020034268 0.12576826 -0.019705877 0.02922874 0.12279951 -0.17271069 0.0042578336 -0.11500774 0.015896589 -0.17724037 -0.035408337 0.120329596 0.008492395 -0.022676457 0.019440902 0.051049188 0.030755924 0.031474095 0.13904302 0.14152671
3 0.10820014 -0.2548926 0.12962683 0.038239572 0.15873426 -0.25660926 -0.46081388 0.10976294 0.012551968 0.06424418 -0.25146633 -0.107407555 -0.10203246 -0.058010828 0.03955829 0.26794627 -0.070416644 -0.024616301 -0.04991154 -0.14584999 0.06363974 -0.07792936 -0.088274285 0.03933944 0.0847993 0.07241488 -0.08880444 -0.09133715 -0.10002203 -0.0032957639 -0.1794366 -0.1430075 -0.010397897 0.08559539 -0.015077701 -0.051643908 0.02942672 -0.014036834 -0.06943399 0.0085463235 -0.008127492 0.039455216 0.052304346 -0.040566217 0.033818297 0.07094188 0.018657528 0.040368102 0.07529681 -0.1843015 0.023000201 -0.27273124 -0.11369063 -0.12301582 -0.14282107 0.07455154 -0.013031727 0.09403059 -0.07728062 0.062487118 0.013742055 0.15008937 0.40643707 0.18960038
1 0.027394217 -0.15184975 -0.10393121 0.06823147 0.06687542 -0.029028606 -0.09003354 0.078958325 -0.058532078 -0.046682213 -0.08599493 -0.07692482 -0.32404253 -0.19485183 0.23311654 0.1613142 -0.09768567 0.19404037 -0.12294289 -0.18753919 0.33365828 0.086370476 0.1977632 -0.16800894 0.13130714 0.07519124 -0.1741163 -0.003331728 -0.060652457 -0.010090961 -0.274637 -0.13364837 0.06364783 0.19023761 -0.060058337 -0.120108075 0.15896752 -0.04679355 -0.08307235 -0.03560688 -0.07038595 0.17652693 0.07570749 -0.2768384 0.05362302 0.3510152 -0.0077368105 0.11966222 0.2587533 -0.3704236 0.011118653 -0.27116966 0.033672024 -0.37102985 -0.11854519 0.26385772 0.009291253 -0.0040928507 0.008754088 0.11708983 0.067361325 0.036417738 0.23197055 0.27412397
2 0.004752005 -0.09779412 -0.06577213 0.16722251 -0.016539263 -0.034543756 0.006284925 0.2142655 -0.15449777 -0.033585053 0.14248805 0.028490193 -0.0807308 0.051118273 0.0044725277 -0.046489958 -0.10061305 0.27972752 -0.13870116 -0.091769904 0.3745004 0.18586275 0.3768906 -0.2632256 0.14197947 0.18063168 -0.2235801 -0.022818211 -0.15016963 -0.15634342 -0.19005649 -0.18246314 0.049011033 -0.017515017 0.0024292052 0.018213386 0.022547137 -0.006962493 0.03453505 -0.015879074 -0.018550117 0.042901617 -0.02879168 -0.08612424 0.033765566 0.24038957 -0.059675884 0.038208026 0.15952311 -0.15961468 -0.011433105 0.021750862 0.118798636 -0.21961121 0.06600499 0.15191618 0.03280855 -0.13313851 0.090026215 0.025286611 0.049574967 -0.1054476 -0.15246664 0.07289877
4 -0.044227764 0.007983789 -0.13798855 0.00061999756 -0.019734208 0.061207615 0.21081991 0.0050753057 -0.014624903 -0.016286919 0.02402573 -0.0054710987 -0.22033235 -0.16863695 0.109864146 0.13204451 -0.17835738 0.18825346 -0.20111166 -0.2834442 0.4225301 0.038436968 0.16002811 -0.1468459 0.16456161 0.12525678 -0.20055754 -0.12811176 -0.14473888 -0.02045322 -0.33440453 -0.23947102 0.16517854 0.033249646 0.10214412 0.09178978 -0.06227044 -0.05200473 -0.0993419 0.07461828 0.00715581 -0.16635288 0.099998206 0.25758344 -0.09610765 -0.19477303 0.11481247 0.022613477 0.08443209 -0.15849313 0.01485131 -0.22754014 -0.010984916 -0.11548118 -0.21633355 0.12331622 -0.047305692 0.1643311 -0.027727896 0.13386945 0.0031875474 0.18697812 0.40568328 0.22436127
