5 64
0 -0.04406563 0.10490539 -0.22847477 -0.027505936 -0.042862073 0.25490648 -0.054958887 -0.058320776 0.083331995 0.056110736 -0.19243708 -0.06525658 -0.0982553 -0.03532559 0.11021178 0.091126904 -0.0015305333 -0.08916322 -0.012014019 -0.05090109 -0.036178682 -0.08173595 -0.14183415 0.07550562 -0.02019796 -0.060202014 0.04641276 -0.051470056 -0.08214993 0.031818546 -0.0024942763 -0.06881171 0.015435312 -0.09933552 0.062008806 0.025314948 -0.103516355 0.0937741 0.022014672 -0.18956503 -0.084078535 0.005438094 -0.050239608 -0.06163124 -0.086918175 0.052414246 -0.083513804 0.06288386 -0.0014878731 -0.08546753 0.040508352 -0.14226148 0.082895614 -0.17646542 -0.09523772 0.17037798 0.06250408 0.020661382 0.08662587 0.05505075 0.21555269 0.2237062 0.13417408 0.2782534
2 -0.06319654 0.10122281 -0.16336411 0.07521177 -0.13209306 0.3392401 0.13747224 0.070867956 0.00044847227 -0.17952761 -0.16609749 -0.13363323 -0.047791537 -0.06534744 0.13594939 -0.046208803 0.045126338 -0.1515671 0.11771242 0.1312775 -0.16262017 -0.01829354 0.02682887 -0.024348157 -0.09909488 -0.059834484 0.1345633 -0.093748994 -0.108287446 -0.0031778538 0.15586598 -0.0556667 -0.009903734 -0.029406246 -0.06567979 0.058831345 0.0057878597 -0.02385608 0.009855088 0.08312764 0.14356554 -0.07735223 0.28219876 0.047118507 -0.19065042 -0.03154443 -0.060444694 0.00667088 0.116588935 -0.08531683 0.032219175 -0.0773208 0.17595679 -0.21408463 -0.04992136 0.22479908 0.12363846 -0.038227677 0.16601482 0.0629177 0.31152275 0.25913662 0.10387804 0.3564363
1 -0.05489876 0.15047567 -0.21171305 -0.067212895 -0.0945793 0.41336766 0.085639484 -0.06824369 0.22070609 0.30695474 -0.15350233 0.069495976 -0.102161095 -0.23273788 0.08547289 0.2629592 0.00975349 -0.067679666 0.030132072 -0.09131423 0.10472239 -0.10561499 -0.08518637 -0.08559557 0.00067175226 -0.035990294 -0.008046565 0.071345 0.12392971 0.19041018 -0.04198802 0.07994675 0.06850504 0.081660375 0.112397 -0.098859355 -0.084604174 0.08737779 -0.18755504 -0.22715409 -0.10081467 0.026256718 -0.028819384 -0.03203103 0.020852143 0.044083398 -0.013736069 0.06791419 0.0014097255 -0.21477205 0.05072779 -0.32729527 -0.036146216 -0.2612966 -0.17452137 0.1885038 -0.08076159 0.2670462 -0.13071713 0.1835317 0.04604035 0.25293192 0.35075292 0.24610974
3 -0.074699335 0.20880987 -0.5301461 -0.0018714439 -0.016092349 0.37049562 -0.32854933 -0.14606783 0.07630827 -0.08263381 -0.42391267 -0.23438886 -0.17872019 0.110644914 0.21595386 0.05676017 -0.05973372 -0.09965577 -0.14102675 -0.19181293 -0.011447681 -0.14316155 -0.32556084 0.24307676 0.03215206 -0.07619482 0.012745707 -0.092675135 -0.19906461 -0.012190209 -0.105991244 -0.17665555 0.15282728 -0.0489731 0.038815103 0.012115848 0.059656426 -0.05385477 -0.07533348 -0.059070863 -0.10349275 0.01322633 0.025153898 -0.0719629 -0.11622404 0.07035155 -0.075880066 0.11593939 0.12151318 -0.088391155 -0.02330739 -0.06714018 0.08032782 -0.216424 0.036268942 0.15269904 0.050591715 0.019951908 0.02861088 0.17218998 0.13532609 0.14147614 0.09279994 0.19945152
4 -0.017250076 0.08465937 -0.20041007 0.05988121 -0.018379714 0.18812042 -0.21062621 -0.03213377 0.02016361 -0.12827322 -0.18615797 -0.12827292 -0.04146454 0.06536689 0.092298545 -0.042943273 -0.039641473 -0.02963751 -0.047306914 -0.06678995 0.021401754 -0.040007103 -0.06335312 0.04093179 0.022333179 0.01135456 -0.012764306 -0.008634858 -0.050225303 0.0004322387 -0.023742039 -0.035441816 -0.013744997 -0.13593145 0.13603055 2.9572862e-05 -0.18316013 0.17948242 0.06541046 -0.34511447 -0.2090975 0.062199302 -0.29836506 -0.11422833 0.03708985 0.08928775 -0.06745132 0.06251613 -0.11652794 -0.024431106 0.036234736 -0.10969257 -0.019335987 -0.036174875 -0.09510093 0.038698286 0.0018877398 0.030465636 0.016669841 -0.014144622 0.06741607 0.09819422 0.07689181 0.09842401
