5 64
0 -0.008322576 0.095087856 -0.02192174 0.118789524 -0.08790035 0.07720259 0.064688906 0.10758866 -0.23546836 -0.14929898 0.27687433 0.030140985 -0.26004878 0.0025445267 0.1956608 -0.12805372 0.18520612 -0.020889401 -0.07093802 0.20497714 0.12482921 0.06773309 -0.1548653 0.2078589 0.0143619655 0.012402719 0.014658824 -0.07305172 -0.11429429 -0.07877115 0.030315291 -0.059552934 0.00059602427 -0.008846699 -0.05061195 0.02176415 0.018254356 -0.033969957 0.021175792 0.09313362 0.20633242 -0.12106655 0.06412276 0.15258881 -0.065101914 -0.18141001 -0.04141163 -0.16919859 0.058490425 0.013537579 0.007237289 0.06068708 0.094381556 0.19454765 -0.13205077 -0.026800083 0.08624788 -0.05540059 0.16258976 -0.21741927 0.21976785 0.21710034 0.03954163 0.17136349
3 0.021179205 -0.20208436 0.038109157 -0.22778898 0.1030778 -0.10884823 -0.14519367 -0.07786987 -0.106307335 0.12795866 0.26789483 0.14531557 -0.23977022 -0.06347786 0.13259757 0.043910906 0.07247606 -0.0014982916 -0.10226955 0.038528956 0.09853285 0.016065681 -0.22264025 0.21908303 0.040378664 -0.095832124 -0.06673154 -0.0059732343 -0.044332236 -0.060722485 -0.09502897 -0.09185328 -0.000518815 -0.011005808 -0.09391029 0.038843554 -0.029687118 -0.027981244 -0.017690212 0.11708032 0.26915777 -0.1659834 0.076332495 0.21610592 -0.0758384 -0.25486308 -0.050791208 -0.22753577 0.12301695 0.01685671 0.011131597 0.115125954 0.16113193 0.32010034 -0.2128791 -0.042213578 0.0816639 -0.039394766 0.18577412 -0.3128109 0.24102454 0.29682997 0.07924944 0.19176523
1 0.00017201716 0.054341722 0.035151735 0.2665547 -0.09600202 0.05851819 0.0016982935 0.17566122 -0.21255206 -0.29471183 0.11049802 -0.09324824 -0.11989865 0.078477815 0.12725425 -0.19284634 0.13798465 -0.069930784 0.042461384 0.19133829 -0.10470283 0.014074272 -0.02901366 0.07983463 -0.11283971 0.10188372 0.20834173 -0.08423901 0.0033749791 0.07135915 0.22921462 0.13195963 0.005092192 -0.0155388275 -0.057521056 0.026059376 0.05659935 -0.03787427 0.05231794 0.07141461 0.12802331 -0.063625425 0.051290482 0.07041588 -0.053939674 -0.08651596 -0.030288292 -0.09483349 0.059214037 -0.0046261773 0.0017666552 0.04540646 0.06801059 0.113983735 -0.06576532 -0.011735147 0.085987784 -0.062193997 0.14514278 -0.15973002 0.20159964 0.16751194 0.017166449 0.15518068
4 -0.047841884 0.09229295 -0.04338418 0.15947983 -0.16486338 -0.102243505 0.26861253 0.48553565 -0.2478726 0.00546448 0.38897103 0.13402258 -0.20278798 0.0906143 0.079540744 -0.059116036 0.0151242595 0.0974181 -0.16345228 0.003361682 0.29918724 0.056663424 -0.1004808 0.15871863 0.037829407 0.14748865 0.0197881 -0.08219415 -0.121563494 -0.004990586 -0.0006269298 -0.039300863 0.04454951 -0.018471489 -0.07357201 0.02970483 0.14110072 -0.04128512 0.11718741 0.0048864647 0.073331065 0.0022620424 0.073643155 -0.04075153 -0.078967474 0.03847581 -0.03250747 -0.016874906 0.123827256 -0.049427275 -0.008936081 0.057705913 0.12600838 0.114388905 -0.0071173054 0.0041150036 0.22678076 -0.18709658 0.32269382 -0.21449088 0.4694968 0.27372035 -0.031785037 0.35578218
2 0.047918487 -0.08040532 0.064046875 0.009942567 0.04272411 0.1394236 -0.25705868 -0.21486351 -0.32733434 -0.28175658 0.34051523 -0.0060525406 -0.44058993 -0.07171176 0.37381387 -0.20820118 0.3668449 -0.15161724 0.007081711 0.4168704 -0.100415446 0.069841675 -0.2540545 0.31421685 -0.074280605 -0.09927162 0.111497775 -0.08367786 -0.06467993 -0.09188297 0.16061094 0.0009584012 0.018342217 -0.031701844 -0.13283648 0.05833971 0.109095424 -0.06444314 0.095374234 0.10617899 0.1675459 -0.0745863 0.0772689 0.073996514 -0.081580535 -0.09344367 -0.043075033 -0.1157163 0.13904184 -0.030147366 -0.00246349 0.08673246 0.11718714 0.16045532 -0.0753887 -0.009376984 0.112374745 -0.081641056 0.18812163 -0.20333795 0.26207507 0.21456036 0.020909665 0.2018048
