5 64
0 -0.037078235 -0.31072003 -0.39691386 -0.07033115 0.1568479 -0.10344206 0.23906788 0.05819707 -0.21684743 0.022738757 0.19972815 0.05085613 -0.11703643 0.17006871 0.062981896 -0.06545243 0.06483926 -0.13794434 -0.09502297 0.013993987 -0.037809223 0.04274028 -0.082991615 0.16674715 0.0694867 -0.14559129 -0.11944538 -0.085533336 -0.06611547 -0.17503214 -0.025204051 -0.15914723 -0.049246587 0.07532547 -0.0026413423 -0.041992158 -0.01991138 0.0016403636 -0.03574144 -0.012838857 -0.024197834 -0.012400363 0.031080248 0.037593044 0.005522881 -0.023519373 0.023089187 0.025380662 0.009663367 -0.042032026 -0.006844473 -0.055417124 0.012895391 -0.014162772 -0.02806258 0.015603937 -0.02730813 0.029304722 -0.022033835 0.049829952 -0.049361568 -0.000589098 0.0035099725 -0.016613716
1 0.016325621 -0.27528486 -0.30572286 0.21280535 0.054497752 0.095083416 -0.07548678 -0.07565545 -0.1268781 -0.1869925 -0.03382935 -0.1220567 -0.11408762 0.13475457 0.09221807 -0.15173486 0.084619686 -0.18768184 -0.08953982 -0.0005022185 -0.11560126 0.053066798 -0.052498404 0.1932711 0.068252355 -0.15041782 -0.09526678 -0.12209493 -0.15669702 -0.2334321 0.014254504 -0.17922199 -0.18758768 0.090086035 -0.12989113 -0.045205384 0.03262737 -0.03964175 -0.08455041 0.14975913 0.09105048 0.0028443765 0.08858572 0.007924055 -0.01699151 -0.018678367 0.00044330952 -0.02026833 0.06297794 -0.029875157 0.020394739 -0.03334557 0.07296479 -0.062024448 -0.10135498 0.08672977 1.9687573e-06 0.04227176 -0.011551719 0.035543863 0.013297587 0.066247836 0.08655498 0.055173535
3 -0.059260555 -0.22051859 -0.38641766 -0.12539035 0.032908157 -0.15066776 0.46380672 0.2231478 -0.13242179 0.33297822 0.24861696 0.21131206 -0.16674954 0.038326044 0.10962348 0.08197033 0.007598812 0.0029621033 -0.011195359 0.05856225 0.1694625 -0.10423667 -0.2749086 0.051600344 -0.0017038919 -0.16253935 -0.17243981 -0.0073527996 0.28015924 0.17477068 -0.15457685 -0.010501862 -0.16716395 0.09283715 -0.13111572 -0.039076596 0.06706013 -0.025852583 -0.026121562 0.11069385 0.17703769 0.059361946 0.09856971 -0.09398841 0.0020492142 0.07745806 -0.0031379466 -0.07608199 0.02094408 -0.020569734 0.05631182 0.001326057 0.05463236 -0.11601462 -0.07292972 0.11032441 0.025663108 -0.015973574 0.02342361 -0.08007052 0.11984298 -0.018824907 0.01028065 0.056621376
4 -0.017364632 -0.1802444 -0.27632493 0.2839476 -0.1289315 -0.017307706 0.21924692 0.2802136 -0.2741089 0.05526502 0.46329015 0.18630289 -0.1866916 0.09850279 0.070031516 -0.08480183 0.20692153 -0.24389856 -0.02563114 0.0871279 -0.3747075 0.24525808 0.0974313 0.26166806 0.10029334 -0.29683748 -0.14982955 0.04006416 -0.13375692 -0.459742 0.12647004 -0.14674643 0.020383852 -0.054145083 0.0033691684 0.024633115 -0.010590978 -9.9403216e-05 0.024991848 0.0017499306 -0.081704244 -0.041717075 -0.050541382 0.06279142 -0.018491792 -0.061894856 -0.014476751 0.028681422 0.026963336 0.020909036 -0.01570376 0.013457562 0.018807348 0.040796723 -0.019355837 -0.012561701 2.2930992e-05 0.025555892 -0.012842186 0.061077476 -0.053169787 0.08205492 0.06844668 0.013484327
2 -0.048581623 -0.4599632 -0.5264559 -0.23482257 0.35299498 -0.18734287 0.2364135 -0.04177127 -0.27605826 -0.037813786 0.16406412 -0.0066490434 -0.055757407 0.295423 0.007319821 -0.09253413 0.0008953847 -0.030135332 -0.18497853 -0.021198561 0.12770788 0.052584972 -0.02001038 0.09462522 0.10252483 -0.032132126 -0.11050578 -0.15130396 -0.2142775 -0.19328402 -0.065231584 -0.23447897 -0.26781794 0.20346574 -0.15487018 -0.10252373 0.03094891 -0.040884957 -0.13693057 0.14914115 0.14984897 0.027977508 0.16615973 -0.013107007 0.0017405691 0.012645571 0.031419378 -0.025087643 0.053835828 -0.08565494 0.031338792 -0.09353088 0.0775124 -0.12005994 -0.12070617 0.12428806 -0.022307858 0.04717454 -0.019212577 0.025821688 0.020822119 0.0024801414 0.039643697 0.03607252
