5 64
0 0.03136619 -0.0014881245 -0.108861454 0.0994511 0.14382906 0.23548001 -0.15094495 -0.13639091 0.036816917 0.0031612706 -0.31793952 -0.10653706 0.23646598 0.14791396 -0.033841986 0.038935196 -0.116916664 0.022779843 -0.028121855 0.06765053 0.027076533 -0.020921193 -0.00716361 -0.010223682 -0.05688654 0.23317964 -0.025368977 -0.22204041 -0.10210329 -0.14538547 0.26741284 -0.086171165 -0.096733935 0.032562878 0.04460251 -0.07631177 -0.10563497 0.055748403 -0.08019342 -0.042935617 -0.024670819 -0.0031023575 -0.04171329 0.060851563 0.078927234 -0.07015465 0.021780767 0.0007757079 -0.019421158 -0.014835416 -0.004216315 -0.052616067 -0.044367157 0.015884299 -0.03340457 -0.018459896 -0.08447768 0.14092518 -0.17879687 0.06370065 -0.15541339 -0.021705933 0.16661145 -0.09770119
4 0.06946738 0.11048782 0.18765275 0.3585704 -0.10246754 0.13828987 -0.20283817 0.14416474 -0.008863535 -0.16582143 -0.2543482 -0.12982632 0.37427685 0.21800746 -0.13831432 -0.10193692 -0.20330575 0.068323806 0.051272795 0.06547034 -0.13315488 -0.009688428 0.104001276 -0.049956534 -0.076104075 0.33622518 -0.00036271196 -0.25429013 -0.12441951 -0.16867237 0.3760759 -0.0570497 -0.15281291 -0.28118175 -0.012961867 0.012141777 -0.118402675 0.068135135 0.053079367 -0.07140666 0.040321786 -0.036056507 -0.057750568 0.07636902 -0.0010616345 -0.13036217 -0.068481274 -0.039835785 -0.07856923 0.16386187 -0.021284046 0.013426095 -0.036670055 0.18025754 -0.08015438 -0.09588967 0.008690043 0.017345782 -0.107012495 -0.020561183 -0.054490864 0.10183134 0.11599081 -0.10855494
3 0.047914565 -0.14569151 -0.006940257 0.13932063 0.2156854 -0.04485326 -0.21156761 0.071926616 0.08421901 0.21964066 -0.3722477 -0.06262801 0.15870912 0.13991992 -0.0015650587 0.20411886 -0.077384524 0.045325983 -0.14886384 0.042861618 0.2713576 0.0027555178 -0.05326084 -0.015427249 0.0024313114 0.1752829 -0.10929477 -0.1976555 -0.1183045 -0.1542244 0.12049496 -0.16171 0.019198893 0.15507266 0.024447516 -0.060077544 -0.0006864256 0.007428831 -0.10778212 -0.01471387 -0.043209728 0.039231997 0.040995322 -0.011044854 0.079031944 0.050610967 0.08495679 0.042847075 0.046638407 -0.16741301 0.015125574 -0.11244556 -0.040756717 -0.12697968 -0.0045694388 0.058014102 -0.06713639 0.10408012 -0.05443979 0.06571256 -0.06409041 -0.06738149 0.061708044 0.026645849
1 0.009746455 0.19250552 0.121012256 -0.1343931 0.06053241 0.21711309 -0.20373338 -0.37665513 0.2182342 -0.065761976 -0.247771 -0.08591523 0.19206384 -0.13599718 -0.08792308 -0.017524377 -0.0930116 -0.029409016 0.07865009 -0.13349465 -0.13244897 -0.09553581 0.024679309 -0.023472842 -0.020993723 0.13456698 0.088516064 -0.018276334 -0.0002899278 0.08789852 0.05812554 0.08034059 -0.09324493 0.10596032 0.071039595 -0.10365638 -0.12576307 0.061012782 -0.07033541 -0.039517455 -0.05119841 -0.006488272 -0.11746037 0.07856216 0.110991314 -0.1088043 0.0043992307 -0.008035121 -0.058580622 0.02294854 -0.021395767 -0.04693277 -0.10640706 0.066866145 0.0047316244 -0.08473793 -0.14263232 0.21503277 -0.34861872 0.100439034 -0.3110604 -0.06622011 0.27195603 -0.25548255
2 0.045127824 -0.091269635 -0.14075966 0.027572352 0.41361266 0.2544079 -0.3980842 -0.3221971 0.24465546 0.10254507 -0.65970683 -0.18265039 0.38076428 0.072967194 -0.057979118 0.1565701 -0.17384714 -0.006896625 -0.07484663 -0.01006781 0.15690468 -0.092944324 -0.08613008 -0.0066870064 -0.05779914 0.26733968 -0.006777541 -0.24266858 -0.10486552 -0.10449354 0.25073946 -0.08379141 -0.030936228 -0.03029105 0.011598173 0.0022740844 -0.031068128 0.009024711 0.03913589 0.004650297 -0.019161846 0.0061651515 -0.044560384 0.0028267228 0.025481619 -0.014559951 -0.007380935 -0.00016471541 -0.008797015 -0.0018307762 -0.007564866 0.00071953714 -0.019026725 0.008605569 0.038846873 -0.023625938 -0.040405348 0.051725227 -0.08871303 0.029890018 -0.086578295 -0.040722013 0.054762147 -0.07136586
