5 64
0 -0.041668683 0.27639213 0.17014243 -0.12170486 -0.14848572 0.085108876 0.15507552 -0.20874937 0.09698468 -0.08430323 -0.3276432 -0.17535342 -0.069599204 0.057697386 0.08104679 0.033152454 0.04316336 -0.19386615 -0.122773044 0.033017065 -0.005669233 -0.09709017 -0.28344494 0.23712353 -0.024639629 -0.16951934 0.0029301147 0.021299262 -0.040985588 0.028528012 -0.04952439 -0.05823967 0.025964648 -0.104842015 0.051835317 0.09091001 -0.078539066 0.021786496 0.06801482 0.0071318755 0.008013655 0.010422461 0.07933801 -0.015068355 0.025255926 0.12272437 0.0050564213 0.029568706 0.036539998 -0.08836331 0.028930442 -0.020324705 -0.07477247 -0.087766364 0.14766054 -0.0077058845 0.14790104 -0.1694757 0.17322165 -0.00956142 0.16758917 -0.029308017 -0.07410528 0.108679175
4 0.062896006 0.26671827 0.19468276 -0.15097585 -0.08276313 0.2965381 -0.31638741 -0.47730753 0.11282661 -0.035906844 -0.07684988 -0.0243407 0.015191591 -0.06869003 -0.0062110526 0.06902323 -0.03836335 -0.094302684 -0.04177683 -0.102357015 -0.002701442 -0.109816164 -0.17757002 0.11119808 -0.031117355 -0.11611339 0.05408852 0.06078254 0.012414868 0.1703291 -0.04092782 0.08735769 0.018765675 -0.07557501 0.01601478 0.06191986 -0.02688582 0.014413244 0.0773015 0.0007091577 0.05548809 0.0014927385 0.08945729 -0.013431398 0.075095445 0.25411293 0.016450904 0.027344402 -0.0026231068 -0.06692869 0.037727494 0.036665272 -0.06494373 -0.055596072 0.19566199 -0.037948173 0.18710145 -0.23056746 0.2252604 -0.042961292 0.26380628 -0.035572227 -0.1124542 0.16031371
2 -0.0033288111 0.14562126 0.053296514 0.059484325 -0.12862049 0.14776531 0.014211246 -0.060749 0.09865305 -0.15171953 -0.53244865 -0.3028147 -0.08287764 0.118910626 0.16497122 0.020555647 0.022366308 -0.25944635 -0.1687841 0.07909703 -0.0585927 -0.1228115 -0.3136676 0.30372074 -0.017242737 0.07324407 0.09748878 -0.53683764 -0.23983324 -0.0022050738 -0.17502226 -0.31623 0.02024728 -0.03972692 -0.0047296523 0.036377262 0.007458762 -0.0009329352 0.053501297 0.007419189 0.019198649 0.021979718 0.049672525 -0.0291646 0.04698179 0.10410504 0.01299587 0.014618027 -0.006532643 -0.03036219 0.014941698 -0.0029131684 -0.03982331 -0.017145898 0.06619869 -0.020319125 0.03702764 -0.041294005 0.03573112 -0.009404383 0.06362446 0.008964297 -0.006235584 0.044964727
1 -0.101945594 0.16789798 0.15604839 -0.055545002 -0.115950674 -0.189266 0.4163589 0.14726599 0.043519303 -0.104885355 -0.23707095 -0.14285554 0.029437924 0.118492275 -0.005040249 -0.02979639 0.015206851 -0.007900136 -0.057726808 0.08248657 0.04222791 0.03314488 0.010011188 0.019950163 0.0405072 -0.021988034 -0.109700985 0.076035656 -0.1790418 -0.048089594 -0.08096442 -0.1992748 0.0296209 -0.09206641 0.016696136 0.07637204 -0.02449516 0.017523088 0.10395417 -0.0036238392 0.038340632 0.050166667 0.17286462 -0.066577084 0.15575092 0.44126004 0.04163029 0.09141329 0.027142372 -0.1478053 0.051394656 -0.053732395 -0.15616897 -0.11755213 0.2359573 -0.040757783 0.21749455 -0.24339928 0.2315025 -0.033378743 0.40956265 0.019189503 -0.09360613 0.27856678
3 -0.068788506 0.47332084 0.24719428 -0.13668515 -0.29177234 0.21003392 0.27004996 -0.33073685 0.096088775 -0.027857179 -0.24195288 -0.13763882 -0.15076855 -0.05511348 0.12972847 -0.041369054 0.09728038 -0.16827376 -0.030146172 0.06729401 -0.105367206 -0.055180486 -0.2068555 0.18807182 -0.0585765 -0.101235725 0.096731685 -0.1421961 0.039708387 0.0031703955 0.012670115 0.0148433335 0.03248525 -0.093529135 -0.0017249759 0.07827458 -0.00029517058 0.009863332 0.12045713 0.0047360407 0.0764786 0.033863958 0.16983703 -0.052413203 0.15003139 0.41600603 0.037001178 0.05426347 -0.0029145149 -0.0916353 0.050604988 0.027312003 -0.101481766 -0.07249079 0.24655944 -0.052269533 0.19989727 -0.23732084 0.22687075 -0.04787947 0.35853946 -0.0025221203 -0.10989904 0.23124968
