5 64
0 0.16136296 -0.16904995 -0.009500352 0.027488668 0.14992729 0.16108719 -0.6973425 -0.22120225 0.024372885 -0.12132251 -0.020818576 -0.043922067 0.017144779 -0.050491374 0.047578856 -0.09290748 -0.014273494 0.026005372 -0.016032614 -0.007286027 -0.055460136 0.057518017 0.16634507 -0.043742612 0.051426195 0.13448891 -0.02514182 -0.02840245 -0.13092746 -0.11629367 0.040449295 -0.06243981 -0.023710325 -0.0018248414 -0.021265527 0.0020130577 0.009607949 -0.0074777254 0.0016500178 0.028659852 0.04125314 -0.0087973755 0.038007747 0.01505608 -0.030874606 -0.019147318 -0.0118748015 -0.016999887 0.014538416 0.03832715 0.0011293723 0.030873694 0.034431435 0.007148269 -0.008318182 0.014895659 0.029030468 -0.026348121 0.040561378 -0.0010706749 0.12789027 0.07132861 -0.0686355 0.104416676
4 0.18255089 -0.18799914 -0.07595709 0.16469523 0.08921669 0.27355137 -0.7559361 -0.1856556 0.045661345 -0.25741318 0.09696676 -0.024897717 -0.05834429 -0.02386313 -0.028888335 -0.1666037 0.10154423 0.015564466 0.10735346 0.089429945 -0.20920062 0.104225814 0.19487749 -0.056939717 0.033932466 0.12394173 0.015002971 0.23120822 0.09971603 -0.040272452 0.15103048 0.21007913 -0.026626619 -0.0019040011 -0.07040172 0.019926123 0.06170493 -0.03369873 0.031864364 0.08383861 0.12423732 0.009087851 0.12093901 -0.024355516 -0.09757686 -0.016955856 -0.03269246 -0.054784626 0.051940262 0.09131612 0.010858102 0.07556509 0.09595077 0.0028284104 -0.022645198 0.053417414 0.102608144 -0.073665075 0.14339499 0.0070802676 0.31887072 0.15756518 -0.1422649 0.284029
2 0.18941516 -0.3545664 -0.23185171 0.2787668 0.12050947 0.23336221 -0.7310981 -0.046857893 -0.04014354 -0.25240394 -0.27864695 -0.22945844 0.1476441 -0.28232464 0.11018077 -0.18274742 -0.12218878 -0.04530494 0.055283323 -0.16110079 -0.2428027 -0.07735997 0.11222394 -0.0057631475 -0.0567421 0.14790113 0.17120653 -0.13186097 -0.149313 0.02812469 0.10539395 -0.0055517713 -0.037760243 -0.03762817 0.064494684 -0.015869604 -0.10055222 0.040278614 -0.042354025 -0.057065282 -0.048970412 -0.034771543 -0.063178435 0.075343974 0.057758976 -0.03586336 0.009484212 0.026525218 -0.031883232 0.031641703 -0.015554494 0.007798065 -0.01422011 0.04355927 -0.009841168 -0.032630403 -0.0164878 0.006578804 -0.03861106 -0.019548511 -0.08509454 -0.015469099 0.0322316 -0.0977484
3 0.1465498 -0.23502602 -0.026956279 -0.11752827 0.26508537 0.03386747 -0.64921415 -0.2568538 -0.20795465 -0.14074753 -0.21034026 -0.20013541 -0.08013207 0.12228682 0.21288426 0.03224739 -0.033121794 -0.054999508 -0.15778936 0.029018834 0.09657454 -0.0056645256 -0.042100664 0.0861652 0.036852814 -0.043186136 -0.11124962 -0.3215485 -0.12203421 -0.20006722 -0.10110482 -0.2903907 -0.33267614 0.07009278 -0.2490392 -0.052498594 0.10831612 -0.06244715 -0.043496296 0.2995449 0.18948273 -0.037083767 0.17953683 0.08010106 -0.09656514 -0.12566663 -0.035230704 -0.057744708 0.056849077 0.12477281 0.0032341075 0.073471084 0.11948652 0.022202019 -0.076410785 0.066033155 0.082271375 -0.032837622 0.09183626 -0.0005709277 0.10274345 0.09692875 0.001855657 0.10750583
1 0.0832439 -0.08767107 -0.036309227 0.05000043 0.05604161 0.12132598 -0.34842163 -0.1066082 -0.113088295 -0.18288292 0.105960056 -0.03445715 0.05476609 0.088542685 -0.116705164 -0.20107862 0.06781088 0.08117924 -0.04672369 0.10065667 0.054974742 0.15697175 0.21901335 -0.08077697 0.08799186 0.095447965 -0.105660796 0.07535172 -0.03825699 -0.14815752 0.038183928 0.002487919 -0.06946763 0.004077957 -0.08911742 0.0111431675 0.05947247 -0.0361267 0.016943071 0.112018146 0.11656376 -0.00016971146 0.11432869 -0.0053533674 -0.086407274 -0.033094496 -0.029182991 -0.047587723 0.045384314 0.0868811 0.007136481 0.06799139 0.08878688 0.0069483216 -0.027908005 0.047892556 0.08154156 -0.056537002 0.112331115 0.005570863 0.23188037 0.122310564 -0.1024282 0.20653954
