5 64
0 -0.006598377 -0.001019486 -0.14471047 -0.07943545 -0.0002200744 0.1256922 0.071767926 -0.21240486 -0.030716829 -0.086244985 -0.18967582 -0.16878998 -0.09924802 -0.01575118 0.19625536 -0.1112029 0.069095746 -0.21530071 0.03199105 -0.0353556 -0.22751053 -0.1290403 -0.25431645 0.21657021 -0.2034017 -0.1963549 0.25027186 -0.14677235 -0.048282545 -0.0973521 0.16449372 -0.09080624 -0.0021004756 0.09727413 -0.017613146 -0.10774233 0.048412416 -0.035791505 -0.13797504 -0.02459977 0.03579372 0.0020744747 0.049358964 0.042753544 0.063304566 -0.043525353 0.025821978 -0.020711498 -0.03999884 0.00054443686 -0.02339435 -0.06028688 -0.0055643856 0.04847788 -0.12350051 -0.008326788 -0.108522944 0.10631905 -0.089629784 0.05444031 -0.19349742 0.040241376 0.14447545 -0.10963436
4 0.051288053 -0.05025874 -0.21253102 -0.19593649 0.045471556 0.23812644 -0.12979311 -0.5485039 0.11331346 -0.08825768 -0.18111335 -0.11116944 0.09777734 -0.1607483 0.07751012 -0.194194 -0.07870966 -0.10622644 0.1818634 -0.032142304 -0.3786494 -0.14252688 -0.044914402 0.039617967 -0.1577544 0.1331995 0.23676933 -0.19932543 -0.1146275 -0.0565523 0.26605943 -0.061889473 -0.092505306 0.018409627 0.00250444 -0.035857286 -0.0434314 0.04502326 -0.0075569376 -0.023847459 -0.002867792 -0.031285625 -0.07494859 0.0036954526 0.10863904 -0.0352853 0.037021738 -0.063835084 -0.11709407 0.026406275 -0.049820133 -0.051599305 0.000119141434 0.12821892 -0.18472904 -0.052109074 -0.16108495 0.1471587 -0.12847455 0.07223572 -0.2762675 0.04224699 0.19154885 -0.1657432
1 0.030577112 -0.18694013 -0.31340683 -0.059596714 0.069343016 0.12449404 -0.017387608 -0.27020192 -0.23415804 -0.22569475 -0.2210114 -0.25304174 -0.18479776 0.24017885 0.28367475 -0.10676772 0.10318476 -0.2116971 -0.18807092 -0.018613577 0.04964465 -0.059828587 -0.2816442 0.27637184 -0.13325937 -0.22656788 0.13700473 -0.10577062 -0.04472267 -0.12955114 0.07905454 -0.119824365 -0.108884625 -0.12041235 0.0206935 0.12522863 -0.11902061 0.09482748 0.18700616 0.035847086 -0.002684304 -0.05512904 -0.12041181 -0.040713046 0.03228185 0.009162172 0.008911751 -0.059480872 -0.0962036 0.03542736 -0.029270792 0.023873344 0.019943923 0.099222936 -0.07277059 -0.050240558 -0.053633552 0.029581798 -0.027367476 0.01720021 -0.10080392 -0.05232325 -0.0024404738 -0.09531364
3 -0.056578282 0.1036825 -0.057629142 -0.049342316 -0.052630093 0.07531375 0.23982476 -0.048889924 -0.012950868 0.002175509 -0.0688737 -0.08245654 -0.11767878 -0.108855546 0.14014478 -0.054527663 0.19186397 -0.3096542 0.124582544 0.029917281 -0.3711742 -0.15876703 -0.4020622 0.3077363 -0.14718474 -0.03666752 0.23884968 -0.015293804 0.006205456 0.1660001 0.0079236105 0.1147351 0.10275684 0.19272019 -0.014248929 -0.21550794 0.13299014 -0.10442995 -0.29429913 -0.08455501 0.041078076 0.047629736 0.16079533 0.076916635 0.016603755 -0.041768316 0.012257413 0.031748243 0.04539238 -0.025983803 0.0042552594 -0.05966197 -0.01338499 -0.040866133 -0.038152512 0.03533848 -0.03201929 0.044193704 -0.032951254 0.033057332 -0.068819344 0.048333038 0.07888822 -0.016206253
2 -0.026035294 -0.0067504304 -0.16365038 -0.05940561 -0.0065923184 0.096355565 0.15595844 -0.14169313 -0.10620169 -0.11117377 -0.015365531 -0.0888817 -0.0552495 -0.078133486 0.13066335 -0.1618444 0.22795928 -0.3971226 0.1322356 0.17369857 -0.4878902 -0.17617719 -0.4702717 0.39026338 -0.28310806 -0.19691388 0.37040278 -0.21183692 -0.054153506 -0.03920036 0.17504965 -0.0483723 -0.074508674 0.024467412 -0.027796352 -0.020706296 -0.0046455446 0.0069180434 -0.018145831 0.033721067 0.013467401 -0.03742395 -0.07117649 -0.0050479537 0.07870838 -0.02432603 0.026010957 -0.05645148 -0.1159103 0.0323605 -0.0430451 -0.019646559 0.0062951734 0.123503305 -0.14079307 -0.056892775 -0.07673229 0.065978564 -0.0614189 0.029092826 -0.15462163 0.022583218 0.1074141 -0.09442181
