5 64
0 0.026933733 -0.09179834 0.2122903 0.22894734 -0.0054849284 -0.26913783 -0.15309465 0.46373844 -0.056641825 0.10134681 0.11671165 0.07831738 -0.079071954 0.074377924 -0.12844992 0.15116666 0.053953856 0.07145959 0.01315981 -0.006080659 0.070155576 0.07448383 0.08083333 -0.06722995 0.12436365 0.1246632 -0.17426136 0.11972339 0.017878711 -0.06568083 -0.18622085 0.03164648 -0.033039533 -0.035304576 0.19428802 0.015771512 -0.25570843 0.13129425 -0.03788565 -0.142119 -0.005344815 -0.015589409 -0.023796208 0.077684134 0.076769024 -0.08758598 0.10443334 0.038510192 0.03050466 -0.11490197 -0.02737603 -0.08658793 0.055468082 -0.067056075 -0.13839519 0.07980329 -0.07283097 0.100409135 -0.058701124 0.07148658 -0.11431989 -0.04466997 -0.08979898 0.0409232
1 -0.0017184464 -0.11218131 -0.016963702 0.20699485 -0.020291418 -0.11889644 0.025190366 0.33406997 -0.053348817 0.033604022 -0.13041231 -0.067180105 0.017573452 0.19881062 -0.04812836 0.0062212087 -0.037237585 0.0950247 -0.0845719 -0.00855754 0.17993668 0.06796058 0.10987749 -0.07820475 0.16075239 0.051260486 -0.25209066 -0.042361315 -0.12017904 -0.14715213 -0.21364933 -0.14991218 -0.029778078 -0.06310074 0.19946018 0.030671572 -0.26407677 0.13991064 -0.008744245 -0.15270248 -0.050670806 -0.039624486 -0.056433406 0.07612399 0.040866196 -0.06686405 0.08802808 0.03787284 0.043889914 -0.113282666 -0.03603009 -0.048147213 0.09499389 -0.08139597 -0.12202087 0.09583496 -0.061773364 0.073487245 -0.025517436 0.08513926 -0.08339671 -0.046682112 -0.09932771 0.036547314
2 0.051760674 -0.22574939 0.047716517 0.33290383 0.040414307 -0.20181164 -0.22832765 0.5280755 -0.015357955 -0.09020869 0.079332545 0.028230784 0.09531024 0.18063998 -0.20963073 0.013549561 -0.022296853 0.18314697 -0.014769289 -0.0450281 0.17234796 0.12609643 0.24369477 -0.18554477 0.181314 0.33405998 -0.22716342 0.21130425 0.009513885 -0.08391193 -0.24732459 0.08178283 -0.1719983 -0.1414524 0.17633726 0.0019165268 -0.30531177 0.22118388 0.094999336 -0.22944659 -0.06657153 -0.02801668 -0.24069053 0.11263248 0.13162279 -0.15742771 0.08536879 -0.02841411 -0.053700563 -0.033048354 -0.015123563 -0.06871845 0.035421345 0.0442371 -0.1782537 0.018252173 -0.079391435 0.10939089 -0.084665425 -0.01890738 -0.08492897 0.019126099 0.04296777 -0.028208068
4 -0.03260834 -0.09034431 0.029228669 -0.05705552 0.04341142 -0.26024795 0.16170663 0.12055817 0.013202478 0.24696563 0.14757442 0.1427926 -0.2975242 -0.013294451 0.018275443 0.33214328 0.12915592 -0.04031658 -0.041755773 0.017934931 0.0972719 0.025080895 -0.13466753 0.0795215 0.08413958 0.16277725 -0.06473092 0.3177885 0.183195 0.04638762 -0.2872582 0.22358549 -0.20636012 -0.04400559 0.32839364 -0.050964683 -0.49228814 0.29740697 -0.0713236 -0.3110643 0.089322664 0.03812121 -0.07699978 0.1907273 0.19863603 -0.17388317 0.1881766 0.055129856 0.057240013 -0.21491142 -0.04302903 -0.19255242 0.0765852 -0.12181295 -0.27163455 0.14442936 -0.12140394 0.18655792 -0.113297075 0.11915544 -0.13498774 -0.014962779 -0.06705212 0.08562777
3 0.033430763 -0.09198785 0.29062513 0.2887508 -0.019072875 -0.33129507 -0.19715214 0.5807325 -0.13080145 0.16970606 0.12434774 0.079216816 -0.16169494 0.07795103 -0.0883725 0.18171617 0.15894023 -0.012041656 0.1213239 0.06583318 -0.12940755 0.059953075 0.009228816 -0.0025161596 0.056018125 0.11576351 -0.08068033 0.18790096 0.059584998 -0.0603984 -0.06773015 0.09004798 -0.093633205 -0.04019796 -0.017747538 -0.024766326 -0.022442041 0.049390893 0.056932215 -0.046129253 0.023093808 0.03072126 -0.11967402 0.015920121 0.12680535 -0.109168306 0.016962318 -0.063827954 -0.13730094 0.108178906 0.040278163 -0.057954177 -0.1370775 0.1746824 -0.050963335 -0.1296752 -0.029712103 0.064166665 -0.11291892 -0.15719596 -0.073110476 0.051191386 0.15248892 -0.08740621
