5 64
0 -0.091326475 0.27899593 0.032856666 -0.020646838 -0.19478285 0.13274415 0.29563197 0.059108224 0.05149378 -0.1276316 0.024087023 -0.0075978152 -0.15839592 -0.18146259 0.048573527 0.0330295 0.030553615 -0.14004046 -0.04133613 -0.015116434 0.07487855 -0.020596454 -0.09737578 0.078364335 0.03305318 -0.019300675 -0.080656424 -0.11205354 -0.1668349 -0.18669446 -0.053524826 -0.30031016 0.07104512 0.009101766 0.22163402 0.06468608 -0.05367905 0.015857527 -0.028172217 -0.0070349392 -0.055755023 -0.038948283 -0.024134794 0.011146274 -0.013472221 0.003203679 0.029165383 0.0119314995 0.0612357 0.026522042 -0.031634215 0.3543146 0.17721575 -0.144383 0.0059458427 0.13829827 0.04769145 0.04169892 -0.0260759 0.06488135 0.034790505 -0.0065244604 0.036043648 0.087504305
4 -0.092236094 0.39046586 0.1255308 -0.1145765 -0.22766252 0.13137247 0.22703995 0.2048461 -0.041315112 -0.49726596 -0.0027894455 -0.12311357 0.050699346 -0.13443182 -0.07390304 -0.12427518 -0.12437587 -0.015938211 -0.049574614 -0.14128974 0.12550002 0.07294516 0.3025915 -0.19177155 0.06804279 0.07319814 -0.10462447 -0.0040474944 -0.1693333 -0.2112405 -0.049024343 -0.29875487 0.022811886 0.021618003 0.28084406 0.05137638 -0.11569152 0.08530488 -0.009655006 -0.073570624 -0.09179443 -0.047786705 -0.094112895 0.012329089 0.015464018 -0.014241474 0.027382582 0.0041876896 0.027585452 0.02674744 -0.035849396 0.3002729 0.23717082 -0.09997493 0.035965897 0.11528299 -0.028596964 0.02808968 -0.00056068256 0.05327136 -0.04913203 -0.074357845 -0.10755427 0.0010007039
1 -0.08529821 0.24083357 0.043206938 0.01727709 -0.18940933 0.08381178 0.27961662 0.0042108092 0.17070074 0.06302192 0.029476268 0.06666595 -0.1652565 -0.22824772 0.030995747 0.08487142 0.020017013 -0.108779125 0.042377893 -0.065450005 -0.040677182 -0.103573 -0.178799 0.10833695 0.042417638 0.13676329 0.025887664 -0.046079252 -0.038172085 0.10398889 -0.07815344 0.008452102 0.20356855 9.060161e-05 0.3137144 0.1382366 -0.034845542 -0.024609357 -0.07655379 0.034378093 -0.050098866 -0.032617886 0.0023108155 0.03246141 0.016485367 -0.018612098 0.040605634 0.01581504 0.0317101 0.0010323968 -0.021956738 0.20411964 0.14256415 -0.116613895 -0.0072307037 0.11365812 0.017618606 0.042241838 -0.02582855 0.051484514 0.0056120567 -0.008595088 0.022198515 0.05196295
3 -0.09499102 0.24184082 -0.068538874 0.004281024 -0.21623036 0.20070472 0.41238296 0.08301615 -0.053296007 -0.24108608 0.08521892 -0.033416506 -0.3250185 -0.19322665 0.17308874 0.03379956 0.2019581 -0.21194406 0.004385675 0.17912996 0.019089228 0.021470958 -0.1999056 0.16053772 -0.06866173 -0.23094846 -0.021405466 -0.1223525 -0.11746479 -0.21065825 0.013265051 -0.32562578 0.40390447 -0.020006217 0.4466137 0.2543744 0.008030903 -0.09654131 -0.1333236 0.10789365 -0.051341075 -0.04078147 0.05509211 0.05794143 0.02922614 -0.031677313 0.060473513 0.025192495 -0.0014578294 -0.026738904 -0.014331219 0.055882517 0.17769897 -0.10563287 -0.004563307 0.113304466 -0.041493997 0.026445081 -0.0022542125 0.03804629 -0.05566742 -0.053759683 -0.07932821 -0.016401049
2 -0.06378227 0.18125746 0.0037185291 -0.085232764 -0.12715061 0.14982271 0.25988415 -0.08438201 0.11062153 0.12619637 -0.051156454 0.029702304 -0.16695476 -0.22787146 0.018011836 0.15394764 0.0041446285 -0.23946834 -0.2711674 0.009110032 0.2983762 0.0048777354 -0.005011248 0.037067227 0.19390142 0.20994377 -0.24631953 -0.2368805 -0.42487535 -0.3205553 -0.23196581 -0.55928195 0.23517466 -0.051241986 0.07170172 0.14203502 0.0865804 -0.11423358 -0.008533953 0.116921656 0.00781486 -0.037029877 0.11232825 -0.006711166 -0.09346211 0.05422492 0.020049052 0.020486286 0.06655333 0.019411057 -0.013565307 0.25508958 0.12503825 -0.1504202 0.00016539067 0.1322586 0.0813713 0.01061382 -0.0062131044 0.05189664 0.0839427 0.00827638 0.05627456 0.118686415
