5 64
0 -0.015345125 0.00056452595 -0.049776167 -0.006117829 -0.005632734 0.01850615 0.075637706 -0.0069462964 -0.11739665 -0.02681889 -0.10015253 -0.10142063 -0.089158505 0.17306261 0.072323345 -0.018433051 0.042342972 -0.021787424 -0.074651524 0.045382377 0.05435596 0.038209833 -0.0045335307 0.041782074 0.11901089 -0.010043026 -0.13697247 -0.1241754 -0.40725374 -0.05039174 -0.0371431 -0.21295726 0.0212938 -0.07467507 0.055963766 0.027417421 -0.06752776 0.022962928 0.015707558 -0.047830116 -0.18832882 -0.032017272 -0.005704966 -0.013577233 -0.042373467 0.062002998 -0.007920675 0.09157032 0.083406255 -0.061555386 -0.09863337 0.1522953 0.006976949 -0.13014296 0.30761656 -0.023966646 -0.10139432 0.046256907 -0.12730019 0.18509404 -0.23073617 -0.14982513 -0.026532587 -0.1455886
2 0.036725022 -0.105333105 -0.043853164 -0.050371952 0.08345793 -0.026420414 -0.1392513 -0.08659578 0.028213963 0.08228138 -0.21458875 -0.08849381 -0.097076125 0.011417852 0.06670402 0.22075205 -0.028861523 -0.035143953 -0.12286777 -0.12699075 0.2145047 -0.07465636 -0.20193015 0.087763324 0.096947215 -0.08809337 -0.11389579 -0.13993943 -0.28035554 -0.021077622 -0.14254823 -0.21095939 0.15954979 0.011140676 0.06922853 0.014403802 8.081021e-05 -0.04613171 -0.076302156 -0.030331261 -0.17621022 -0.03023155 -0.034016393 0.05489964 0.008697588 -0.015115561 0.015532065 0.06690435 0.025148615 -0.037746843 -0.056089204 0.056651566 -0.020573424 -0.05281571 0.14589266 -0.029246923 -0.08050543 0.02435378 -0.102729775 0.117101215 -0.14859824 -0.07588642 0.01391803 -0.098115705
3 -0.1375394 0.12625167 -0.204593 -0.29289934 0.03682516 0.052664936 0.5776305 -0.19807868 -0.12465347 0.065558165 0.043645605 0.002963244 -0.058040064 0.16421694 0.020701539 -0.13795339 0.088553414 0.06180257 -0.0860417 0.1491798 0.11038062 0.15724538 0.15622048 -0.043930616 0.23851253 -0.0002518981 -0.3206231 -0.08935179 -0.30435416 -0.10081334 -0.016431583 -0.16519627 -0.10844865 -0.08520051 -0.0029021746 0.0175658 -0.065042004 0.05929288 0.08086779 -0.020331174 0.11899711 0.025698936 0.046875346 -0.12799084 -0.04539414 0.12255641 -0.04341678 -0.03449443 0.04906546 -0.022967452 -0.037374087 0.16032384 0.01036862 -0.08589018 0.28792506 -0.02918517 -0.019283272 -0.03244775 -0.017434768 0.08015507 -0.13152884 -0.14739975 -0.0655479 -0.12422779
1 -0.058409344 -0.01638542 -0.17797378 0.102695264 -0.078361794 0.04382446 0.30560645 0.11982941 -0.14575967 -0.050315354 -0.24813223 -0.20040533 -0.15218568 0.21449043 0.1309982 0.080021136 0.04695385 -0.08505155 -0.19000085 -0.025158923 0.20565546 -0.019261485 -0.19350421 0.15228784 0.21153018 -0.084698446 -0.24621108 -0.26524144 -0.5349064 -0.04174449 -0.09097725 -0.30334806 0.1883639 0.05129036 0.059378773 0.0041596983 0.03252094 -0.06898668 -0.10461657 -0.013930441 -0.21400736 -0.040938877 -0.042027764 0.09761108 0.009807385 -0.029644145 0.019735986 0.06954268 0.037336666 -0.040131953 -0.061926015 0.068925016 -0.0110319285 -0.065637626 0.16099545 -0.022841953 -0.085739866 0.027885217 -0.108771555 0.1324647 -0.1682853 -0.095231794 -0.0006439007 -0.10635453
4 0.012040211 -0.12869272 -0.08328321 0.21014386 -0.053778306 -0.0485431 0.01472259 0.21629308 -0.07162409 -0.16366231 -0.06390835 -0.10564757 0.09251887 0.069073744 -0.06604238 -0.07372695 -0.07770588 0.1923682 0.09649427 -0.0007163125 -0.023194348 0.109580286 0.3484785 -0.24399772 0.10473952 0.17596401 -0.042333454 -0.14328392 -0.5021811 0.16636777 0.16349475 -0.0662487 0.21855307 0.068569325 0.065938085 0.001022972 0.042709928 -0.0825745 -0.12700352 -0.012901275 -0.18252055 -0.033068635 -0.024926865 0.042117298 -0.006377587 0.05530274 -0.009033783 0.04085797 0.09400208 -0.07370498 -0.115810424 0.26561597 -0.00842469 -0.17153853 0.52684075 -0.06797505 -0.13232552 -0.0011179203 -0.16044068 0.2509945 -0.33072487 -0.2659105 -0.07726963 -0.24709499
