5 64
0 0.011151227 0.018706765 -0.057256974 0.11742993 -0.084374554 0.16189791 -0.012090076 -0.03903085 0.059790757 -0.14765714 -0.19685909 -0.12881699 0.009781644 -0.08277558 0.081986964 -0.053508874 0.10159588 -0.030314432 0.082493946 0.0013925837 -0.080167234 -0.019320492 -0.06425766 -0.02206332 -0.070731446 -0.11184208 0.11625842 0.16751942 0.20690858 0.17462698 0.0057220166 0.20500426 0.07284616 -0.047392424 0.0061312723 0.04313741 0.006722097 -0.0011152263 0.043098457 0.0027719946 0.052837346 -0.054116 0.00306606 0.04999771 -0.051768217 -0.06473135 -0.035256285 -0.050478864 -0.07148829 0.2565121 0.02145978 0.25559142 0.09390328 0.07207886 0.07202078 -0.025371658 0.04719539 -0.10931174 0.10270078 -0.052340195 0.06779665 -0.028671712 -0.1407545 0.011615091
3 0.027193865 -0.010162476 -0.15269311 0.08695413 -0.11782072 0.3391203 -0.007123793 -0.21886979 -0.091822945 -0.22362077 -0.09586445 -0.15283534 -0.17049438 -0.030800426 0.20813896 -0.09376722 0.20238328 -0.22397381 0.071364015 0.08373458 -0.23981044 -0.09852397 -0.25881088 0.2258341 -0.14308181 -0.3327634 0.20185229 -0.065715045 0.03478316 0.00047517975 0.10305553 0.031610068 0.10513539 -0.138925 0.004409969 0.11666416 -0.10526222 0.0138417985 0.07048861 0.10650401 0.11127937 -0.12232021 0.013830002 0.13572903 -0.09237872 -0.16585058 -0.06392079 -0.104705855 -0.1115369 0.40206173 0.03143914 0.3968919 0.12826015 0.098167524 0.09077811 -0.03335045 0.103767894 -0.22864133 0.22336982 -0.11495836 0.15371445 -0.03336212 -0.2872578 0.036619492
2 0.02660726 0.024018008 -0.114994414 0.2875033 -0.15442502 0.26218233 -0.050337568 0.021590184 0.1545584 -0.34008992 -0.43992066 -0.27322626 0.15171804 -0.1445751 0.087706655 -0.1460886 0.09043092 -0.005371749 0.20029418 -0.019549867 -0.24623817 -0.054574233 0.0021119025 -0.12563598 -0.10640646 0.07802933 0.20865022 0.21595593 0.28938323 0.31584823 0.09901453 0.3691633 0.017472422 0.017533736 0.0009129885 -0.011845807 0.06703005 -0.009452167 0.0043327133 -0.05393483 0.00019211345 0.008522825 -0.0017164659 -0.018059826 -0.0043552355 0.017679295 -0.0034998746 0.001328823 -0.016755527 0.06146173 0.0073703406 0.0587985 0.03365937 0.027792105 0.023044435 -0.008681978 0.0031888045 -0.0060242917 0.0039284746 -0.0028039024 0.0042127785 -0.0043165516 -0.006183788 0.000120201206
1 -0.08034066 0.12990697 0.18967138 -0.030106483 -0.063297145 -0.07406709 0.1636176 0.08369776 -0.02865732 -0.10902774 0.23596242 0.08352431 0.061983634 -0.046545945 -0.09279314 -0.1417934 -0.0110290395 0.06814491 0.2324046 0.040058877 -0.31009376 -0.026241649 0.16053884 -0.15084651 -0.056821283 0.077952385 0.10156928 0.15896434 0.17640029 0.15223517 0.10071201 0.23986873 0.07671214 -0.124996364 0.0066211284 0.10304236 -0.122918844 0.017603887 0.05371249 0.10992023 0.09009767 -0.10866646 0.01147567 0.12692276 -0.07312755 -0.15112361 -0.04976423 -0.08735262 -0.07009885 0.25044975 0.016514847 0.24990095 0.09109018 0.06780469 0.06435855 -0.02378064 0.08635823 -0.18445845 0.18367873 -0.09492842 0.12985255 -0.015354702 -0.2278909 0.03533173
4 0.053621072 0.053612962 -0.003977147 -0.07053268 -0.004825251 0.2020888 -0.14028852 -0.29160872 0.13380355 0.018361969 -0.2982948 -0.12376675 -0.100854546 -0.15041389 0.15650775 0.094002925 0.16427743 -0.049881645 0.021578599 -0.015352086 0.042642497 0.0053926813 -0.11909189 -0.014070481 -0.06660049 -0.21582392 0.10336329 0.27354485 0.30347133 0.23567486 -0.07954732 0.252398 0.0057910923 0.0332908 0.0033114809 -0.025330344 0.052847486 -0.005902087 0.00020345433 -0.050558776 -0.017284617 0.019015707 -0.007289373 -0.030511644 0.0057184575 0.034567073 0.004761747 0.013490988 -0.0036918262 0.009768521 0.0017701425 0.013688537 0.0010524999 0.00040769676 0.012038724 -0.0027602073 -0.020462694 0.030927753 -0.036541287 0.020282693 -0.034334015 -0.019176725 0.0288754 -0.01754887
