5 64
0 0.012132696 0.028014893 0.037001774 0.054348573 -0.04277301 0.03400685 -0.05114894 0.0158832 0.121954985 0.070085615 -0.20313315 -0.060436882 -0.017004518 0.09360348 0.03297597 0.091314875 -0.11803215 0.19564518 -0.06746352 -0.16433923 0.29699564 0.051777355 0.15806209 -0.1802106 0.064713486 0.23217961 -0.022309791 0.2491452 -0.023890646 0.12330996 -0.02033011 0.064897254 0.05193863 -0.18110326 0.09721074 0.0709341 -0.12646675 0.007297388 0.0023114146 -0.045485847 -0.11996038 -0.066388704 -0.16533159 0.12280076 -0.022917587 -0.0422535 -0.094659045 -0.0036629555 -0.01428589 0.021388728 -0.008137682 0.03567075 -0.0064093694 0.016705526 0.044617392 -0.02582324 -0.04485707 0.057086248 -0.0715267 0.02445786 -0.030938497 -0.36491027 -0.0088755805 -0.07845204
2 0.0065861377 -0.04277666 -0.04207576 -0.18147103 0.12561187 -0.01788061 -0.046660513 -0.1738802 0.0466362 0.015784925 -0.15253444 -0.07095472 -0.06919135 0.13324964 0.07182291 0.07669208 -0.06851443 0.10303724 -0.07069803 -0.100752845 0.17689043 0.039333344 0.108441114 -0.09045366 0.08243665 0.09457636 -0.09949595 0.12656108 -0.047889885 -0.021622041 -0.09974092 -0.0681346 0.04659067 -0.15704276 0.09120493 0.052103397 -0.11303726 0.014482965 0.0038547015 -0.062307164 -0.11011438 -0.058755975 -0.1497752 0.11523818 -0.009998926 -0.041529175 -0.06794115 -0.0008141319 -0.03205805 0.097624116 -0.02911653 0.08196608 0.021073706 0.07100245 0.02402036 -0.043909583 -0.008050166 -0.021141151 -0.016355053 -0.0025452378 -0.02384583 -0.091936395 -0.04537114 -0.06393615
3 0.043489274 0.14484379 0.091879435 -0.13868128 0.017756391 0.20273887 -0.24350253 -0.31578922 0.19170211 -0.09610575 -0.4502491 -0.22931403 0.009496806 0.047807362 0.06797532 0.08381091 -0.17921466 0.16646147 -0.082626686 -0.27481964 0.22494224 0.01293458 0.19686183 -0.16406685 0.090091474 0.4424076 0.060387366 0.2749039 0.0024196226 0.2552216 0.111462995 0.28032568 0.0015132489 -0.11214685 0.069033846 0.038148265 -0.10863976 0.009590029 -0.02800005 -0.016965317 -0.10681055 -0.07383937 -0.13979998 0.1400218 -0.03605647 -0.06279826 -0.0733165 -0.009664592 -0.017679658 0.11832304 -0.035506617 0.088571094 0.055603214 0.07378001 -0.016376173 -0.021441914 0.014010606 -0.025745366 0.02274571 -0.006458793 -0.007284044 -0.057548534 -0.023391476 -0.029395813
1 -0.018555412 0.10151696 0.11004623 0.15109393 -0.13684613 -0.0022416653 0.072204664 0.1786879 0.16034752 0.19464023 -0.14303274 0.025559487 -0.04837872 0.15337422 -0.0023305693 0.16689311 -0.1543478 0.3167012 -0.12141211 -0.1999938 0.46951577 0.12794901 0.29917213 -0.29155415 0.20519087 0.26092374 -0.2683325 0.40640572 0.16245355 0.014929894 -0.27386937 0.014049448 0.038486686 0.04017964 -0.030666055 -0.007854884 0.07082643 -0.009534729 0.03918833 -0.009884634 0.045780603 0.052736305 0.056211706 -0.09850523 0.042130318 0.0597353 0.033516314 0.015457567 0.0059288773 -0.15815385 0.042872053 -0.10414074 -0.10163558 -0.08929969 0.070251994 -0.002012414 -0.07171211 0.09281094 -0.11754252 0.03333211 -0.02875623 -0.28374255 0.015949668 -0.051752586
4 0.015806751 -0.30116495 -0.20281085 0.097252384 0.08746513 -0.17496231 0.028543621 0.16814297 -0.08892829 -0.07570091 -0.056143086 -0.09149133 -0.16428126 0.36620638 0.13061653 0.00395108 -0.05768258 0.08136378 -0.11381385 -0.08047251 0.09687823 0.09214259 0.23657936 -0.07977586 0.18045233 0.18415277 -0.22863303 0.17902325 0.24136212 0.036670975 -0.09830996 0.15139137 0.20524804 -0.46756566 0.2676711 0.13740094 -0.2750786 0.060225777 0.09199972 -0.28292263 -0.16543604 -0.048806 -0.24841733 0.108315 0.07763082 -0.015152623 -0.09717545 0.025831215 -0.08378052 0.065436356 -0.008051168 0.0854115 -0.06950892 0.08341663 0.14403507 -0.116907835 -0.07249591 -0.018161228 -0.1358858 -0.007236417 -0.05178484 -0.50262976 -0.1392563 -0.20290646
