5 64
0 0.016747095 -0.0652271 0.21506447 0.041311387 0.0042443597 -0.30082533 -0.07619459 0.20856382 0.2080529 0.27767035 0.08083826 0.12620978 -0.1065159 -0.15066104 -0.07479409 0.20981795 0.07942316 -0.094645195 0.010077051 0.045797504 -0.009122022 -0.057899706 -0.22263634 0.11776621 -0.025478812 -0.07300407 -0.031237021 -0.08612464 0.14824767 -0.03426181 0.21316268 0.010859518 0.024965042 0.033405706 -0.032682337 0.091308214 0.028077554 -0.037796568 0.031886276 0.14984705 -0.05742134 0.026243214 0.022663428 0.0026314976 -0.018341664 -0.043983433 0.065271385 0.028218891 -0.041464306 0.09713697 -0.037235864 0.022774084 0.04014552 0.0942649 -0.10771799 -0.0195356 -0.10793038 0.1522836 -0.1294074 0.12847736 -0.11308481 0.057172924 0.022414578 -0.062355183
1 0.018167434 -0.08658802 0.20239839 0.056497645 0.013376222 -0.31143788 -0.08077019 0.23708008 0.2938409 0.33012894 0.14849006 0.17529602 -0.12365251 -0.21296377 -0.18829143 0.34846395 0.074889824 -0.07180656 -0.02236602 -0.062442914 0.088651635 -0.06431673 -0.24643415 0.11171511 0.09291531 -0.18471919 0.0110731125 0.17562635 0.13281073 0.15951507 -0.21847153 0.062308896 -0.018995022 0.028505938 0.00458788 -0.06403202 0.0016916431 0.0054116547 -0.054903284 -0.051192444 -0.24171953 0.1150501 -0.22938198 -0.011875897 0.11539673 -0.015546277 0.037532024 0.12153765 -0.13656747 0.26790676 -0.108953476 0.021095678 -0.07144197 0.2717578 -0.13840796 -0.16434608 -0.15068568 0.14054142 -0.17108066 0.1329224 -0.23318322 0.06024788 0.06602412 -0.15955003
4 0.032896478 -0.2031106 -0.008964804 -0.02747976 0.15618873 -0.20724666 -0.14156917 0.10811471 0.17462581 0.28800583 0.03899008 0.11163149 -0.061233424 -0.11355283 -0.12165212 0.21240199 0.017724613 -0.029575445 -0.030523833 -0.062146064 0.072265185 -0.038278595 -0.12050019 0.053070024 -0.051747676 -0.042066816 -0.013297087 -0.09110906 0.15761144 -0.056023575 0.3454321 0.0579248 0.14007725 0.28895676 0.058472093 -0.21971792 0.08943299 -0.032667406 -0.26674706 -0.17017546 -0.17674302 0.10496649 -0.04025966 -0.037144784 0.021485835 0.022218473 0.072708495 0.07232854 -0.02341529 0.046195522 -0.032860387 -0.025283808 -0.026409676 0.053304084 -0.05676236 -0.031081403 -0.07763769 0.10605426 -0.09714852 0.09269905 -0.10206529 0.03044745 0.03266278 -0.055336326
2 -0.010117242 -0.20178021 -0.0034776137 0.44635326 -0.06666107 -0.24973062 0.07257666 0.723028 0.07358342 0.18587543 -0.0013396665 0.059057165 -0.050211024 -0.02540293 -0.028637776 0.14291625 -0.00663694 0.013500379 -0.04288769 -0.05346319 0.107974716 -0.010044139 -0.049885117 0.0069502327 0.045141947 0.04443342 -0.03996582 0.004357295 0.06374003 0.0028769618 0.08386627 0.029507406 -0.08503869 -0.16582942 -0.07210416 0.22007516 -0.036448922 -0.010212663 0.20210813 0.24493028 -0.028899506 0.008064675 -0.02197926 0.009386082 -0.0026243404 -0.053449508 0.023550529 0.010212719 -0.05151662 0.11583505 -0.039753664 0.033475243 0.035376556 0.111121215 -0.10131552 -0.03283952 -0.088462606 0.11287001 -0.10226296 0.09633243 -0.08161906 0.035748478 0.019914063 -0.045167357
3 0.03710998 -0.091788195 0.09291222 -0.2048832 0.15057842 -0.18071058 -0.17478615 -0.15175906 0.31928602 0.14643611 0.2255992 0.15079863 -0.06833656 -0.21122207 -0.12898973 0.11898768 0.101739965 -0.12891416 0.045144927 -0.034327317 -0.088637695 -0.081449114 -0.24036 0.14412454 -0.057768177 -0.21939424 0.09158591 0.07914082 0.24198867 0.10817732 0.13641606 0.16128229 -0.13082221 -0.27139765 -0.096124195 0.31819853 -0.06796749 -0.0028078374 0.30831763 0.32932135 0.06254144 -0.059289638 -0.005730648 0.04795778 -0.0041601225 -0.07682504 0.003064497 -0.0077971546 -0.06334355 0.14059016 -0.038647015 0.06051137 0.048828483 0.13069095 -0.09569885 -0.040656075 -0.097783186 0.11807782 -0.11020204 0.10113548 -0.12616877 0.06372962 0.018645745 -0.08436299
