5 64
0 -0.018344786 -0.064429514 -0.1436853 -0.15581585 0.061369665 -0.012369352 0.08749808 -0.047695708 -0.0048228865 0.29079878 0.15611678 0.16580595 -0.22518817 -0.013136281 0.12802419 0.118700095 0.118256085 0.0464349 -0.042819835 0.17395192 0.13815832 0.064597785 -0.10157108 0.025492702 0.030718168 -0.12741123 -0.14942767 0.0072277514 -0.04023073 -0.11012942 -0.045523547 -0.07783666 0.059859 0.2198436 0.026277276 -0.06504859 -0.029399263 -0.032000016 -0.26282156 0.06124007 0.06542666 0.021561839 -0.030542424 0.19236703 0.021375464 -0.070176184 0.055892713 -0.00360173 0.16729401 -0.23535332 0.06570092 -0.24906029 -0.08481667 -0.1931093 -0.054172847 0.11757236 0.00582017 0.08594303 -0.1289942 -0.05570381 0.057295125 -0.17605992 0.1720274 0.062858574
2 0.023988344 0.17087835 0.24815677 0.09603764 -0.08586994 0.04007695 -0.14873503 -0.048003078 -0.027624682 0.18790558 -0.042594027 0.030539999 -0.30633685 0.08522392 0.17699316 0.1225581 0.02764967 0.1169205 -0.12552142 0.139492 0.10936952 0.056216758 0.08906642 -0.08066879 0.009616444 -0.081601016 -0.06581365 0.012921819 0.044413153 -0.030277167 -0.061393738 -0.02560082 0.15163165 0.34256268 0.112357676 -0.13110638 -0.033179674 -0.027876193 -0.31228846 -0.022671187 -0.0047340244 0.050121456 -0.13710801 0.23857942 0.08711264 -0.11838924 0.06860452 -0.008706696 0.20648292 -0.30097845 0.06457763 -0.28714192 -0.055136103 -0.25896296 -0.08577174 0.17430668 -0.020203436 0.15773782 -0.14669709 0.024263501 0.100839354 -0.1913033 0.22898994 0.18551566
3 -0.021570781 -0.17244811 -0.33754978 -0.41155896 0.18887895 0.05432107 0.012260125 -0.31232816 0.05871779 0.118220024 0.068814255 0.08225459 -0.066574804 -0.1649219 0.049649075 0.14157645 0.0975318 -0.09491321 0.08620444 0.03528901 -0.02088578 -0.052068662 -0.25539017 0.118599415 -0.048802093 -0.23092864 -0.02198755 0.021963863 0.08180648 -0.032642666 -0.054808374 -0.12334881 0.00552839 0.15848608 -0.015059055 -0.040296987 -0.032122213 -0.023630163 -0.2288601 0.08927778 0.09551879 0.020551011 -0.010003539 0.15545143 0.009639949 -0.031741682 0.04778424 -0.0026104336 0.13040991 -0.20934002 0.07314121 -0.24154714 -0.12942815 -0.152398 -0.01687526 0.068404004 0.025191367 0.02761861 -0.13032292 -0.13596685 0.019506678 -0.18366472 0.18000577 -0.050582267
4 -0.052115563 0.031170476 -0.008280861 0.063328765 -0.036266 -0.11706769 0.33632585 0.24381293 0.046529967 0.5492675 0.26922914 0.31392804 -0.38693786 -0.0075210454 0.19422533 0.22594179 0.13293944 0.077620864 -0.06512469 0.20867981 0.2217598 0.11629191 -0.07034108 0.0029689814 0.053213943 -0.13995644 -0.2234821 -0.044791274 -0.1964505 -0.3280457 -0.03177457 -0.24178192 -0.049643457 1.3895421e-05 -0.023784176 -0.00816846 -0.023938578 0.028373018 0.023162864 0.022058422 0.090636276 0.020278469 -0.0137765175 0.10612553 -0.06508165 -0.043500554 0.04389134 0.000626168 0.13796775 -0.14478302 0.04973344 -0.17604429 -0.049614474 -0.13707812 -0.062354703 0.097677745 0.01133988 0.048968922 -0.08392097 -0.05101704 0.07633456 -0.12181783 0.049325775 0.13907051
1 -0.027146418 -0.09985085 -0.2668126 -0.4450547 0.17320305 0.07846979 -0.025527587 -0.39237624 -0.09031126 0.4356372 0.21632113 0.22061493 -0.3915165 -0.036351103 0.2362092 0.2107724 0.08068866 0.06756653 -0.07823758 0.16256422 0.063355245 0.0192828 -0.059072595 0.0013712915 -0.00991878 -0.119648896 -0.035773873 0.051429257 0.1098177 0.025140317 -0.09290655 -0.0029933292 0.04994495 0.16542675 0.01718363 -0.043059055 -0.021786911 -0.021274138 -0.17787781 0.054635353 0.122265086 0.008657797 0.027704809 0.2049723 -0.07686874 -0.08647767 0.07176159 0.0040057655 0.21272363 -0.21842758 0.061906755 -0.24006967 -0.02953651 -0.20788492 -0.101187386 0.16098796 0.005579053 0.10467004 -0.118753985 -0.025040178 0.12219149 -0.20571643 0.108254895 0.220713
