5 64
0 -0.06198161 0.22799894 0.26944098 0.023912326 -0.12051513 -0.10538551 0.18257765 0.20364204 0.12437438 0.2306088 0.07420488 0.14849828 0.051724438 -0.09867568 -0.088823184 0.11183986 -0.01797138 0.08313853 0.06212618 -0.006885896 0.05510376 0.011674293 0.03168764 -0.090843745 0.012083628 0.11124552 0.012308132 0.046888676 0.040677343 0.08336172 -0.010446919 0.070226625 0.12114918 0.018719517 0.16917056 -0.058241278 -0.109309934 0.066316314 -0.07388542 -0.23056893 -0.14955238 -0.06598488 -0.033308644 0.058142904 -0.07156901 -0.038755495 -0.012314859 0.09853537 0.06964427 -0.009106515 -0.03944205 -0.020284368 0.06816333 -0.04827905 -0.08739416 0.072231226 -0.066624 0.110607624 -0.11405922 -0.14649703 -0.08954429 0.051744938 0.17857876 -0.08169446
1 -0.09056422 0.124372266 0.30903962 -0.08305642 -0.016341252 -0.38420513 0.29819316 0.3154836 -0.02939052 -0.05207489 0.4659437 0.23476093 0.10464983 -0.108295575 -0.16166028 -0.18019481 0.13484456 0.03169703 0.1668754 0.23274246 -0.18764785 0.10262333 0.11352753 -0.071113616 -0.07587259 0.028583748 0.10207693 0.032391105 0.04086592 -0.026048852 0.21657917 0.13295041 0.04720266 0.019189477 0.12171049 -0.045794163 -0.10471052 0.048969675 -0.08453406 -0.13799949 -0.11391651 -0.0795376 0.0038866724 0.0984455 -0.061568897 -0.07781276 -0.00068973016 0.083220445 0.04345199 -0.009466829 -0.014426756 -0.048713375 0.042452954 -0.025181936 -0.11003539 0.059414208 -0.042088415 0.040258426 -0.06607628 -0.13554958 -0.07449408 0.021981325 0.07519028 -0.09860555
4 -0.05804237 0.45651236 0.44180045 0.06262746 -0.23771107 0.058285814 0.101022825 0.15824172 0.1715119 0.27207097 -0.0446184 0.109576166 0.058314152 -0.09884471 -0.078760564 0.16845453 -0.07714853 0.0971413 0.038957264 -0.091307215 0.10074148 -0.020869091 0.025558405 -0.101825595 0.0620937 0.2149273 0.006623027 -0.015984476 -0.041950308 0.12890399 -0.103319496 0.013651455 -0.030455902 0.009076525 -0.027162638 -0.0034443543 0.016831784 -0.0018212398 0.010493232 0.024137115 0.19858739 0.020887595 0.12816101 0.06462472 0.09804025 -0.07081433 0.054090496 -0.10634609 -0.051516995 -0.07106393 0.08712323 -0.1583388 -0.099556 0.018402372 -0.09861696 -0.007162208 -0.019352445 0.072848685 -0.044106066 -0.019945014 -0.00019243191 0.040992774 0.11673508 0.031146461
2 -0.11141399 0.4391007 0.41454697 0.13799687 -0.28935194 -0.058453795 0.3526081 0.36591798 0.12010912 0.19249278 0.0035230177 0.09643459 0.060996275 -0.06762249 -0.08143031 0.10745325 -0.0377641 0.09081392 0.03428818 -0.036431566 0.089985706 0.01045836 0.04106688 -0.09363994 0.028745195 0.039141584 -0.060111504 0.11222258 0.1112122 0.09171426 -0.088012084 0.058142718 0.20440665 -0.015845634 0.17861462 -0.031032871 -0.07746924 0.054579504 -0.023605991 -0.26350552 -0.12688671 0.0044886516 -0.12477525 -0.07074719 -0.045096982 0.063751936 -0.044613544 0.051606685 0.035556808 0.053978194 -0.06705485 0.11520425 0.07202069 -0.010167358 0.06897696 0.0029840565 -0.0111613115 0.0031491898 -0.015029052 -0.030373013 -0.02465225 -0.003660396 0.004493095 -0.033585772
3 -0.05605833 0.042418025 0.08066072 0.035481486 -0.05053843 -0.1576848 0.2258342 0.21352366 0.06684853 0.32774472 0.11258939 0.17977346 -0.0398613 -0.0468071 -0.039478507 0.18172786 0.03113165 0.07243845 -0.015671108 0.028691703 0.18771438 0.03297462 -0.047858287 -0.045324493 -0.011166754 -0.16268113 -0.117415294 0.20861655 0.23776557 0.031128192 -0.063925676 0.07700144 0.25464 -0.015070612 0.2316221 -0.045363598 -0.10507569 0.073806465 -0.036918532 -0.34115365 -0.26262346 -0.01635963 -0.20867294 -0.0970264 -0.105000556 0.095039085 -0.07644441 0.12434844 0.07475699 0.07752989 -0.112704456 0.17049605 0.12819135 -0.031446952 0.084598355 0.024990441 -0.031983983 0.030869655 -0.048365574 -0.072869636 -0.057159733 0.005465347 0.0468374 -0.06643032
