5 64
0 0.009582254 0.010416974 0.3477866 -0.034341495 0.0039276965 -0.3650608 -0.0831724 0.18469553 0.038300253 0.18635492 0.12892157 0.12449645 0.03924634 -0.1338188 -0.1206981 0.023467729 -0.030920118 0.06255563 0.0038281833 -0.17827882 0.08061321 -0.0036871494 0.04140192 -0.059647605 -0.029701827 0.009361509 0.11628314 0.12084645 0.061073504 0.12285551 -0.0774228 0.080126464 -0.005338619 0.054756295 0.029903065 -0.07514977 -0.0054965024 0.04845061 -0.011202279 -0.12185498 -0.3835842 -0.07699139 -0.23174007 0.10201594 -0.018005218 -0.09454876 0.060268376 -0.0543236 -0.00927842 -0.018233523 -0.0036862358 -0.013801411 -0.0069362903 -0.00046117746 -0.009339386 -0.0034227301 0.01016435 -0.03818256 0.04530048 -0.043315623 -0.12301351 -0.17674336 -0.17497051 -0.14037704
4 0.026457194 0.10946466 0.37406585 0.2994545 -0.11688483 -0.13764854 -0.21501048 0.48985887 0.046956174 0.05150376 0.079701215 0.06017294 0.032095127 -0.14561936 -0.1489057 -0.0151346065 0.011933659 0.08422056 0.019258901 -0.22141318 0.101610385 0.023195298 0.059339453 -0.07782135 -0.01821657 -0.09878158 0.16052142 0.331447 0.19872181 0.29335877 -0.2343017 0.23646945 -0.058104012 0.014888646 -0.038504057 -0.06324914 0.037651356 0.024350338 0.02545916 -0.05770171 -0.27796444 0.028236492 -0.19150585 0.011146894 0.008396291 -0.10828733 0.033779323 -0.062192425 -0.01371658 0.030859917 0.009023455 0.001941863 -0.023410084 0.026402775 0.010065045 -0.022017213 0.06897164 -0.08785279 0.067237616 -0.06888588 0.0060372506 0.0032634714 0.069057755 -0.01733354
1 0.02816725 0.06444628 0.23457268 0.094194636 -0.031912696 -0.079512246 -0.18490204 0.17622463 0.0655787 0.0044178558 0.03433411 0.04107752 0.01132589 0.005623335 0.15273896 -0.05482141 -0.0109050535 -0.11382125 0.08115582 0.11885439 -0.2327403 -0.08316021 -0.10010964 0.085090004 -0.04377494 0.116195 0.03640795 -0.1553079 -0.034219675 -0.06050913 0.1779321 -0.014111006 0.056682248 0.13829437 0.1299596 -0.1374822 -0.058137543 0.106802106 -0.062384434 -0.27598783 -0.6329811 -0.16555786 -0.36055368 0.18081397 -0.045786228 -0.12807949 0.1068055 -0.0734549 -0.034723464 -0.006761434 -0.011203901 0.033676658 0.051016107 0.022484021 -0.03135369 0.0023958767 -0.008959013 -0.05408599 0.094441965 -0.07554975 -0.19887458 -0.31459862 -0.37243766 -0.23813003
3 -0.040935818 -0.22342359 0.032763243 -0.081168495 0.072780855 -0.500993 0.25434867 0.19963445 0.0028323412 0.43101043 0.25952697 0.2574623 0.13862224 -0.18795943 -0.22484794 0.06955152 -0.13567501 0.09216449 -0.01542309 -0.2507608 0.11374469 -0.043327738 0.07144279 -0.0958588 -0.06709897 0.17456861 0.14939772 -0.07000461 -0.05782241 0.0016460102 0.08966441 -0.041015957 0.03146579 0.037514586 0.055637065 -0.023123508 -0.036183707 0.029103382 -0.028190093 -0.06966877 -0.16406694 -0.11812496 -0.08235746 0.11766088 -0.029342117 -0.045958135 0.046141718 -0.028943414 0.014119689 -0.07166297 -0.011777959 -0.053529985 -0.020345198 -0.043194134 -0.013826771 0.014762102 -0.04472467 0.037581965 -0.022022488 0.018649364 -0.16624413 -0.21996546 -0.2629353 -0.15784425
2 0.030356573 0.055339124 0.3664362 0.16720721 -0.05122529 -0.22540858 -0.2125999 0.36502537 0.14742626 0.42517313 0.2995421 0.3060352 0.06229019 -0.28790674 -0.1207608 0.02918941 -0.04483126 -0.0011488826 0.10012322 -0.24133612 -0.08540545 -0.089772955 -0.03788177 -0.020148765 -0.13106999 0.15290718 0.30151224 0.054713156 0.07558139 0.13921073 0.12280005 0.14211005 0.02714117 0.037869338 0.03237861 -0.033744648 -0.006641098 0.022068318 -0.015817251 -0.07032321 -0.3980571 -0.053447407 -0.22577934 0.05267713 -0.006376013 -0.046781227 0.050653346 -0.020343328 0.010130122 -0.051632233 -0.0023497322 -0.06787149 -0.056990348 -0.028836994 -0.00090952317 -0.0045947665 0.008626348 -0.018438324 0.0074398797 -0.020750143 -0.13954268 -0.17680916 -0.14870356 -0.14363189
