5 64
0 0.012284904 0.1060197 0.045420356 -0.005317478 -0.09752726 0.11936506 -0.03179133 -0.16310556 -0.049507376 -0.19363028 -0.01712946 -0.0805992 -0.091303766 -0.07287099 0.1566811 -0.12813893 0.2167705 -0.10431814 0.04093214 0.12219016 -0.14419629 0.063352644 -0.064641975 0.11087951 -0.07777501 -0.114605166 0.14774759 0.07933906 0.06506118 0.0302899 0.12329768 0.15079305 -0.24358724 -0.06473574 0.10883937 0.01100295 -0.28853068 0.12576604 -0.067806765 0.003662696 0.047975644 -0.13559414 -0.012909911 0.18047681 0.011056974 -0.13197498 0.038405158 -0.10742587 -0.08239627 0.077662386 -0.0007823652 -0.024348829 -0.019182459 0.11804327 -0.11109651 -0.0493902 -0.031144813 0.026177665 -0.0019869544 -0.07331468 -0.026202088 0.03257563 0.00048659154 -0.004555883
2 0.07077099 0.0723019 0.177882 -0.00841699 -0.024606159 0.07092697 -0.32995513 -0.14988475 0.364054 -0.21787074 -0.46155733 -0.2476488 -0.056492794 -0.23373993 0.1274276 0.10461179 0.107669584 -0.14907967 -0.027165694 -0.1377781 -0.10334961 -0.049026966 -0.1485886 0.16754195 -0.032538794 -0.27269962 0.1674587 0.109833926 0.020251466 0.0520091 -0.057937086 0.11450748 -0.23703405 -0.057236787 0.14854391 0.08130104 -0.35232744 0.1411015 -0.056626618 0.0629684 0.05432873 -0.14477998 0.020408118 0.15186025 -0.015452641 -0.096695736 0.06316053 -0.12558427 -0.08609103 0.041109864 0.011197684 -0.023860224 0.007177079 0.10028121 -0.12288736 -0.028859446 -0.040420406 0.04463314 -0.01646746 -0.054740995 -0.042792335 0.024785973 0.010904215 -0.0004990725
1 0.012169857 0.16827257 0.1536498 0.04534893 -0.17021652 0.08968819 -0.03522435 -0.108450145 0.117440954 -0.3460769 -0.106762856 -0.15645267 -0.021044256 -0.16270374 0.023977287 -0.15981925 0.21578039 -0.020781592 0.2084721 0.45058063 -0.30986646 0.13778004 0.098887995 -0.029344713 -0.22033238 0.053544264 0.17440714 -0.029177058 0.15336587 -0.0133463135 0.48242554 0.20325439 -0.07961205 -0.09939373 0.06902338 -0.025983261 -0.11185178 0.1277797 0.110827245 -0.19002065 -0.0017951578 -0.09537759 -0.08330967 0.1292224 0.08415909 -0.10312415 0.027839875 -0.047429316 -0.069874585 0.081512235 -0.0076308604 0.00085974263 -0.043869693 0.10282408 -0.032499116 -0.06885485 -0.0067538135 -0.028895348 0.03494338 -0.07414958 0.011032648 -0.024494635 -0.058147527 -0.010856039
4 0.0047874763 0.077485025 -0.0015097245 -0.04082037 -0.07386608 0.10593583 0.012334061 -0.19261225 -0.13899232 -0.10593322 0.034345966 -0.05026756 -0.19926426 -0.033659685 0.26023132 -0.095965624 0.51060164 -0.22267437 -0.025797931 0.33239657 -0.08750211 0.15869457 -0.2614905 0.28795707 -0.12017727 -0.46989542 0.0889634 0.091760784 0.104793854 -0.096975744 0.05711326 0.047466625 -0.06609962 0.024498254 0.036006447 0.09019673 -0.12027324 -0.007401244 -0.07794292 0.17925034 0.057303123 -0.04007979 0.092186585 -0.006617441 -0.091209374 0.036004495 0.01877743 -0.060084872 0.014550849 -0.057458878 0.027696796 0.015452716 0.08105209 -0.04520638 -0.03249275 0.06350463 -0.029843275 0.037328053 0.033616625 -0.0074213385 -0.0042980514 -0.0052558165 -0.0020796438 0.052654307
3 -0.018711805 0.002891673 0.03184716 -0.044220746 -0.03219615 -0.09750104 0.11191017 -0.023119958 0.01956779 0.048133556 -0.008497848 -0.009524443 -0.11102474 0.0036916216 0.026777342 0.06568192 0.0782168 -0.05997033 0.087791026 -0.10128331 -0.23877469 0.012483034 0.07890972 0.027601361 -0.046562847 0.012893752 0.25521985 0.16741486 0.05140904 0.13663185 0.105032235 0.28821534 -0.21452978 -0.057797376 0.095181435 0.011943944 -0.25407502 0.11004899 -0.058635235 0.0063533173 0.040725622 -0.112198204 -0.011438183 0.14912388 0.008460714 -0.111569725 0.031147942 -0.09212831 -0.066213 0.0661956 -0.0015821798 -0.019136801 -0.017569367 0.09692505 -0.088176966 -0.041717593 -0.023523608 0.018271582 -4.9312606e-05 -0.060144186 -0.017976038 0.02529342 -0.0023291064 -0.0039049687
