5 64
0 0.045061227 -0.24297766 0.054213107 0.06153618 0.13483654 -0.2986208 -0.18707773 0.2489986 -0.10456064 0.046280418 0.06807498 0.04057374 0.033177126 0.1447291 -0.019568466 0.009889832 -0.11500046 0.09580417 -0.05947976 -0.07491091 0.115936466 0.02293906 0.14195848 -0.098566495 -0.07862333 0.057716884 -0.12937672 -0.11512791 0.030722976 -0.21799935 0.27340704 -0.08409054 -0.081173584 -0.009483058 0.05826009 -0.038669724 -0.11015321 0.05352262 -0.06019507 -0.055337057 -0.040629853 -0.060255196 -0.06654986 0.1086093 0.042708408 -0.113161765 0.014468898 -0.018995466 -0.063871324 0.088587016 0.005570796 0.04915749 0.08070092 0.10115288 -0.11537823 -0.0023343416 -0.034409046 0.07475374 -0.112191625 0.0359298 -0.082645625 0.03623561 0.1181662 -0.0656707
3 0.08279763 -0.13800345 0.2027772 -0.06211786 0.10818477 -0.24977309 -0.35867572 -0.015190019 -0.17071179 0.0399281 0.07865814 0.036548603 0.020206643 0.20950025 0.013084278 0.004947273 -0.049654357 0.06382796 -0.030486925 0.038881492 0.07173553 0.036481563 0.091278195 -0.06553938 -0.0011971557 0.01619545 -0.10470248 -0.08969959 -0.043790676 -0.13652518 0.06283214 -0.11630655 -0.27090457 -0.030940454 0.14963007 -0.04979315 -0.34815782 0.111395 -0.22448434 -0.0026317025 0.14717081 0.04542003 0.23925292 -0.04703046 -0.077216126 0.060512133 -0.0027875116 0.022126686 0.063797876 -0.045098968 0.055066727 0.008937197 -0.009895671 -0.08717909 0.10668999 0.03794396 -0.071641475 0.18941607 -0.375612 0.03427418 -0.22875959 0.075084925 0.3903042 -0.25220528
4 -0.08860713 -0.16811852 -0.1946799 0.24120165 0.028649999 -0.18547234 0.382357 0.5930067 -0.31301463 0.07483705 0.13325092 0.050547406 -0.07956314 0.31964052 0.11539125 0.028809514 -0.045858473 0.10470171 -0.102268904 0.109919615 0.21114767 0.08405241 0.10744862 -0.084461614 -0.03110379 -0.10765437 -0.26324388 -0.09499204 0.028178304 -0.30316845 0.13488321 -0.21083406 -0.1501444 -0.028005807 0.06905335 -0.034014873 -0.16912363 0.07527733 -0.07569794 -0.034706764 0.004363478 -0.05970075 -0.016928215 0.098099664 0.01440931 -0.09964394 0.010083657 -0.031587236 -0.066248074 0.10289199 0.02608745 0.08323931 0.10616931 0.104407094 -0.09732748 0.004948874 -0.032021824 0.074264206 -0.114933826 0.028414933 -0.079860695 0.04000716 0.12514992 -0.06750429
2 0.086076386 -0.33780438 0.029326813 0.07756436 0.19142367 -0.30920747 -0.3503394 0.23147683 -0.110653885 0.007522186 -0.08992623 -0.041915998 0.14279544 0.2582089 -0.052308638 0.012551858 -0.28240427 0.12432152 -0.17769691 -0.36971393 0.23329692 -0.041851908 0.19946462 -0.11754865 -0.03054619 0.17674403 0.062371466 -0.043347515 -0.017268855 0.021093598 0.13920853 0.06700406 0.071812496 0.022298424 0.063059956 -0.045002498 -0.017141229 0.016051335 -0.04294969 -0.11343997 -0.076018214 -0.096991 -0.10699495 0.17609324 0.069130085 -0.18096142 0.026093418 -0.021819023 -0.056494582 0.07128622 -0.016538126 0.009200132 0.056908723 0.09369906 -0.1412324 -0.0044584717 -0.09633946 0.20423666 -0.29363176 0.11952134 -0.22359036 0.09360451 0.30536142 -0.16406216
1 -0.029119277 -0.058954563 -0.046525184 0.07729187 0.012209054 -0.086555526 0.12375083 0.2098515 -0.08685259 -0.16026525 0.13669272 0.03559202 0.16547169 0.066127844 -0.07486002 -0.17142098 -0.16015686 0.07777285 -0.035142913 -0.050314967 0.024640337 -0.0014740508 0.17073308 -0.10009304 -0.11317955 0.20205998 -0.007500296 -0.15114161 0.008907661 -0.14353229 0.3771548 0.008919829 0.08836382 0.025140485 0.035364397 -0.037178304 0.025993833 0.0018220824 -0.013393482 -0.0986522 -0.12274394 -0.0652652 -0.15448083 0.13092402 0.09047905 -0.13935514 0.023311034 0.0033588947 -0.057560943 0.061887905 -0.032315873 -0.012069481 0.037503514 0.09335773 -0.14960432 -0.0130565865 -0.05606928 0.098999776 -0.11742682 0.09365852 -0.11312261 0.032590836 0.107784726 -0.058728505
