5 64
0 -0.058910362 0.022436457 -0.0100194495 -0.06681577 0.019838706 -0.13641061 0.23326959 0.06995711 0.043210637 0.12857741 0.06577448 0.07779652 -0.14006115 -0.1366057 0.086507894 0.0776903 0.040171765 -0.09151024 0.011625821 -0.014069854 0.14029892 0.02516892 -0.071571626 -0.046008963 0.01984779 -0.16473418 -0.06231647 0.12387775 0.14761649 0.11191154 -0.2025693 0.010402582 0.0064171962 0.12021454 -0.025757523 -0.108933404 0.15891653 0.022423754 -0.11220129 -0.10743606 -0.0022622515 0.07559346 0.05117417 -0.047364432 0.083986886 0.06631205 0.059423022 0.037374534 0.050650124 -0.14289658 0.006584163 -0.11657163 -0.2848915 -0.033090744 -0.015955659 -0.09236473 -0.06476357 0.072479986 -0.20356204 -0.05263005 -0.14593992 -0.22668003 0.12046218 -0.18128708
2 0.007188185 -0.076463155 -0.1940945 0.25799912 0.088641346 -0.016358672 0.1629774 0.046549167 -0.17816031 -0.03970249 -0.0360362 -0.07178301 -0.16044219 0.134372 0.18032506 0.011701388 -0.025501383 -0.05476036 -0.14061347 -0.011363316 0.42921254 0.1888243 0.1587444 -0.22662044 0.10721747 -0.06769916 -0.19030745 0.1097249 0.04252413 -0.0009178072 -0.24736157 -0.08854155 0.004588035 0.07005166 0.013283633 -0.06273201 0.15007398 0.034832396 -0.10664987 -0.12558521 -0.03833733 0.08995601 0.019809091 -0.06258138 0.11051657 0.085238576 0.07172861 0.051269952 0.06910702 -0.20238677 0.0030329605 -0.16328081 -0.38512388 -0.04196785 -0.037414916 -0.12452074 -0.08872102 0.11136596 -0.27875143 -0.06165862 -0.19287246 -0.2905364 0.18243603 -0.23037714
4 -0.103983015 0.031923246 -0.016781602 -0.039785113 -0.107465565 -0.18546069 0.5252713 0.27925935 -0.0015849578 0.020394165 0.36076704 0.18042865 -0.13222578 -0.20673732 0.012995888 -0.06934388 0.1494257 0.0073775146 0.064567186 0.118540615 0.12852865 0.21604158 0.17684813 -0.20869146 0.03835165 -0.18610843 -0.09446467 0.38635504 0.31765223 0.16537331 -0.20774382 0.19438733 -0.008226012 0.08858474 -0.07094021 -0.09252984 0.081622474 0.0046827677 -0.049212366 -0.042055283 0.00844263 0.017712532 0.019659488 -0.011343321 0.015658537 0.014938684 0.011829711 0.0059523215 0.009593815 -0.04528563 0.0052479333 -0.040099844 -0.0844341 -0.008599307 0.010252966 -0.03129007 -0.010087906 0.0031912706 -0.041519564 -0.021488545 -0.029966073 -0.06569616 0.012861245 -0.04891198
3 0.010875036 0.022739323 0.036857206 -0.02211772 0.07900694 -0.043812353 -0.14337642 -0.17170876 0.25124532 0.22388944 -0.15323205 0.046528123 -0.0041320627 -0.22674517 -0.005573203 0.16987737 0.023135707 0.0057603773 0.113944486 -0.10135642 0.13615064 -0.008859104 -0.108444236 -0.07479843 -0.009179057 -0.20804481 -0.004875391 0.32170305 0.3307342 0.2476666 -0.20431143 0.206811 0.027501054 0.018723272 0.09552024 0.0049579586 0.11539455 0.040316656 -0.10227648 -0.124735884 -0.04819976 0.06547336 0.0070001516 -0.044949967 0.08745681 0.06705342 0.061328713 0.047284316 0.08335224 -0.19471672 -0.0023785846 -0.1408598 -0.3861344 -0.047456346 -0.051102776 -0.1184443 -0.09459598 0.120857134 -0.32077605 -0.07928698 -0.2106306 -0.34651285 0.21164003 -0.26347867
1 -0.044083733 0.024604797 0.08067652 -0.25095925 0.06520286 -0.17164469 0.08101746 0.013878211 0.1411038 0.30196488 0.005157298 0.12344046 -0.111921914 -0.16592805 0.039388977 0.1988652 0.05546986 -0.024143923 0.06854963 -0.008762469 0.055086948 -0.0069709285 -0.08685815 -0.02291484 0.0113726435 -0.13662378 -0.036810517 0.18812723 0.1872241 0.13240056 -0.15751265 0.08962262 -0.0031039368 0.09186346 -0.049504653 -0.0908293 0.09637015 0.0077468078 -0.059818532 -0.05350049 0.015343224 0.037672352 0.0388974 -0.022917766 0.03582067 0.03044974 0.025880964 0.01330422 0.016988592 -0.062172014 0.0068570976 -0.055068806 -0.13630868 -0.015594776 0.0049187336 -0.046705954 -0.02693789 0.023176964 -0.087929145 -0.029958582 -0.065598324 -0.11147974 0.041944314 -0.08858447
