5 64
0 -0.016086452 0.034414593 0.055696975 0.012103321 -0.020964092 -0.047271144 0.052783348 0.07283099 -0.057014734 -0.074304946 0.11787144 0.032950822 0.07117515 0.049147647 -0.06434304 -0.08758464 0.0038853127 0.069355555 0.077343754 0.06616264 -0.06646999 0.06001642 0.14708485 -0.098785445 -0.037787896 0.17642927 0.06822816 0.15002213 0.18339102 0.18604179 0.07873997 0.23448206 -0.05406728 -0.064240605 -0.08256531 0.024956996 0.056824517 -0.021980798 0.07688854 0.06403289 0.13727176 0.04799655 0.0024162622 -0.052776147 0.00814864 0.0017003025 -0.06001877 -0.078529514 -0.070978574 0.10600572 0.04494154 0.072736226 -0.01561196 0.09997483 0.047295805 -0.06463602 0.16102846 -0.09207669 0.06791403 0.18878727 0.22045195 0.1696977 0.03029627 0.17195158
4 -0.0064191525 -0.073850214 -0.014512299 0.001612738 0.047030967 -0.10496334 0.029710442 0.09380774 -0.09701833 0.17605732 0.23968533 0.15832373 0.025539568 0.14779703 -0.11544244 0.057145026 -0.021390667 0.12722221 -0.04827048 0.018783037 0.18394001 0.0882652 0.1325972 -0.1155829 0.019764237 0.16226754 -0.04573906 0.10486804 0.100682184 0.07933293 0.010282016 0.102350116 -0.051552616 -0.058657132 -0.058875922 0.023778684 0.032475207 -0.0035791644 0.07706689 0.039192982 0.11034232 0.057589155 -0.032887492 -0.06515251 0.041989 0.021432789 -0.038657956 -0.082218364 -0.058263503 0.05516786 0.034673925 0.024435008 -0.033724237 0.06922132 0.026334006 -0.052292217 0.08188871 -0.04464569 0.03044231 0.08710062 0.11254009 0.08762797 0.023766963 0.08510434
3 0.029353924 0.3463793 0.5593866 -0.021741614 -0.0030180188 -0.0038537157 -0.38135982 0.15801926 0.049435835 -0.1473103 0.18527485 0.069952235 0.13126302 -0.120905 -0.12434939 -0.16990472 0.024984926 0.066082545 0.2211929 0.039296478 -0.23816659 0.035561096 0.16424227 -0.13130124 -0.07479307 0.04302566 0.15365042 0.2915536 0.323994 0.3131409 0.03625507 0.37465328 -0.05938823 -0.029214721 -0.03254315 0.0035523453 0.0029887077 0.010407189 0.038296577 0.018712582 0.11140242 0.05667098 -0.0073984466 -0.058981292 0.027266804 0.015460108 -0.04392129 -0.06461073 -0.04810517 0.06230342 0.03815725 0.021792443 -0.045795407 0.06438767 0.04068616 -0.05398921 0.05674974 -0.0021359278 -0.02304731 0.0824997 0.07212578 0.07083841 0.08032164 0.056534592
1 -0.059405547 -0.005056065 -0.033441715 0.016388653 -0.06887447 -0.12537153 0.30336958 0.106702715 -0.15521938 0.018548878 0.37759092 0.15229437 -0.040719975 0.09671399 -0.090203606 -0.06674195 0.10914773 0.08818307 0.043831136 0.11515258 0.020580241 0.13946933 0.1555936 -0.094763555 -0.03940828 -0.0051869056 0.07101046 0.33424988 0.30795574 0.22069594 0.017415682 0.33409256 0.11007292 0.007825824 -0.03959928 0.018576577 0.09711587 -0.097901344 -0.047220673 0.07530903 -0.046897095 -0.106943995 0.09566153 0.11467856 -0.13026977 -0.08598656 -0.011001338 0.06704522 0.0026767503 0.08061568 -0.015856791 0.1267461 0.1239432 0.030155161 -0.0041595413 0.025911586 0.16720016 -0.15860076 0.16935359 0.17520835 0.239542 0.1531227 -0.11757639 0.18980472
2 -0.033885285 -0.0070164413 -0.0651152 0.1626906 -0.09134095 -3.1655683e-05 0.17731024 0.20511764 -0.1492822 -0.56437206 -0.15749621 -0.24333659 0.27445993 0.15872532 0.00055671803 -0.3702839 -0.0785638 0.024367915 0.15195899 0.20491505 -0.34112847 0.03645758 0.26852974 -0.11080659 -0.06775343 0.38159555 0.108876295 -0.05439381 0.039654974 0.10888406 0.25303042 0.16653685 -0.032007866 -0.022783086 -0.025758334 0.0064361435 0.009348715 -0.00011739096 0.026467754 0.019350737 0.050543685 0.0068700886 0.020226622 -0.005375619 -0.015432531 -0.0119935265 -0.026871638 -0.018380627 -0.023733662 0.05565853 0.017361673 0.043523796 0.004413606 0.041892838 0.023498919 -0.023100464 0.07469379 -0.041283038 0.029786907 0.094867386 0.10146635 0.07895076 0.015135007 0.08093518
